tree
version=v3
num_class=1
num_tree_per_iteration=1
label_index=0
max_feature_idx=24
objective=binary sigmoid:1
feature_names=Column_0 Column_1 Column_2 Column_3 Column_4 Column_5 Column_6 Column_7 Column_8 Column_9 Column_10 Column_11 Column_12 Column_13 Column_14 Column_15 Column_16 Column_17 Column_18 Column_19 Column_20 Column_21 Column_22 Column_23 Column_24
feature_infos=[-1:1] [-1:1] [-1:1] [-1:1] [-1:1] [-1:1] [-1:1] [-1:1] [-1:1] [-1:1] [-1:1] [-1:1] [-1:1] [-1:1] [-1:1] [-1:1] [-1:1] [-1:1] [-1:1] [-1:1] [-1:1] [-1:1] [-1:1] [-1:1] [-1:1]
tree_sizes=2883 2928 2917 2947 2946 2936 2934 2947 2924 2968 2956 2964 2962 2940 2948 2968 2946 2963 2980 2967 2941 2954 2944 2966 2944 2986 2984 2958 2979 2968 2979 2950 2942 2976 2967 2962 2958 2971 2954 2974 2982 2951 2983 2982 2969 2972 2978 2956 2984 2958 2981 2955 2982 2985 2954 2983 2955 2979 2981 2983 2944 2956 2959 2991 2994 2981 2962 2959 2972 2985 2990 2964 2962 2996 2978 2995 2956 2990 2989 2980 2961 2978 2956 2969 2983 2983 2988 2957 2990 2982 2963 2992 2951 2982 2995 2959 2997 2952 2965 2979 2973 2997 2964 2986 2993 2974 2976 2949 2986 2991 2959 2997 2978 2950 2973 2969 2993 2997 2981 2976 2977 2964 2985 2988 3000 2975 2987 2993 3001 2964 2984 2965 2986 2988 2970 2961 2980 2986 2975 2982 2947 2965 2984 2989 2977 2991 2998 2975 2960 2984 2984 2976 2967 2999 2982 2984 2970 2982 2982 2982 2962 3000 2953 2973 2986 2973 3000 2985 2962 3005 2980 2971 3002 2950 2972 2989 2983 2954 2979 2980 2951 2987 2978 2959 2960 2982 3000 2945 2979 2976 2975 2967 2968 2957 2965 2983 2971 2986 2978 2985 2978 2994 2949 2992 2998 2994 2958 3000 2973 2945 2968 2951 2962 2997 3003 2993 2984 2995 2965 3000 2974 2997 2979 2976 2994 2978 3000 2956 2986 3000 2962 2969 2976 2977 3005 2980 2975 3009 3005 2981 2983 3003 2954 2970 2994 2989 2970 2953 2983 2973 2992 2978 2977 3000 3006 2979 3005 2987 2963 2999 2996 2982 2984 3002 2981 2963 2955 2980 2965 2993 2981 2975 2963 2976 3000 2979 2989 2978 3001 2973 2952 2975 2977 2979 2997 2999 2997 2978 2988 2995 2980 2994 2991 2979 2957 2968 2981 2996 2998 2989 2994 2965 2997 2981 2972 2990 2994 2976 2964 2996 3000 2997 2970 2967 2968 2973 2986 2976 3010 3008 2990 2949 2968 2977 2991 3001 2999 2973 2982 2978 2958 2983 2972 3007 2960 3005 2993 2951 2987 2967 2968 2998 2991 2965 2998 2970 2968 2967 2985 2985 2967 2971 2960 2987 2989 2995 2999 2962 2951 2958 2977 2994 2956 2964 2975 2999 2984 2986 2948 2964 2956 2964 3010 2987 3001 2995 3001 2981 2958 2966 2978 2988 2961 2996 3003 2975 2987 3000 2960 2980 2991 2964 2991 2977 2975 2959 2962 2959 3000 2969 2981 2996 3002 2956 2988 2989 2971 2962 2987 2956 2998 2988 2972 2949 2991 2988 2997 2960 2985 2980 2985 2964 2982 2944 2995 2980 3002 2953 2964 3003 2976 2939 2977 2977 3004 2968 2955 2982 2949 2966 2954 2981 2970 2945 3004 3006 2992 2991 2948 2954 2979 3014 2923 2957 2983 2993 2974 2997 2961 2971 3002 2991 2960 2987 3001 2983 2956 2986 2984 2988 2966 2998 2984 2991 2976 3006 2959 2949 2957 2957 3003 3010 2985 2981 2942 2959 2989 3008 2974 3006 2992 2961 2964 2973 2985 2959 3017 2994 2993 3002 2957 2972 2951 2952 2990 2959 2958 2971 2998 2990 2974 2947 2996 2961 2980 2992 2983 3000 2969 2960 2961 2980 2957 2989 2999 2978 2970 2967 2986 2955 2971 2980 2996 2984 3003 2985 2975 3001 2963 2948 3000 2975 3000 2963 2976 2982 2935 2964 2952 2972 2957 3004 2969 2993 2956 2981 2955 2964 2987 2962 3004 2941 2996 2927 2963 3006 2970 2963 3003 2981 2971 2996 3000 3015 2958 2981 2974 3002 2976 2996 2967 2946 2905 2985 2938 2975 2941 2995 2996 2943 2952 2949 2944 2982 2946 3011 2953 2947 2972 2993 2966 2975 2984 2904 2960 2988 3007 3000 2958 2990 2897 2937 2984 2959 2964 2971 2953 3004 2948 2957 2950 2961 2980 2973 2974 2983 2990 2991 2968 2992 2976 2926 3007 2955 2997 2944 2933 2956 2953 2942 2945 2970 2944 3013 2965 2981 2980 2956 2984 2943 2988 2955 3002 3004 2990 2975 2949 2955 2974 3008 2981 2981 2960 2971 2960 2990 2963 2969 2930 2979 2998 2958 2953 2959 2949 2981 2943 2950 2934 2972 2947 3003 2977 2998 2958 2959 2969 2952 2909 2962 3004 2993 2981 2901 2966 2919 2948 2934 2960 2958 2965 2934 2973 2988 2973 2862 2944 2944 2969 2925 2961 2952 2987 2959 2966 2972 2938 3003 3008 2982 2949 2959 2977 2945 2985 2948 2970 2961 2944 2906 2967 2933 2962 2900 2938 2925 2947 2988 2999 2966 2950 2986 2887 2984 2967 2948 2978 2945 2890 2923 2943 3000 2949 2998 2931 2977 3001 2973 2960 2930 2948 2888 2973 2951 2916 2963 2921 2910 2934 2922 2979 2977 2956 2917 2889 2962 2934 2904 2979 2893 2966 3000 3005 2952 2916 2950 2910 2919 2909 3001 2942 2913 3003 2948 2976 2945 2919 2952 2962 2983 2962 2933 2954 2954 2931 2974 2936 2931 2982 2930 2992 2901 2987 2996 2953 3006 2887 2968 2966 2976 2973 2908 2930 2933 2931 2951 2915 2991 2898 2943 2973 2944 2953 2957 2954 2940 3002 2970 2961 2974 2947 2967 2949 2935 2980 2976 2940 2989 2960 2961 2928 2967 2957 2958 2997 2970 2965 2966 2921 2958 2964 2961 2946 2912 2958 2925 2964 2943 2958 2927 2957 2981 2955 2948 2925 2941 2915 2964 2941 2954 2882 2948 2961 2959 2974 2950 2921 2953 2942 2955 2970 2929 2971 2906 2909 2890 2926 2940 2899 2933 2959 2909 2933 2941 2941 2891 2952 2973 2954 2956 2947 2945 2922 2944 2939 2950 2971 2949 2932 2950 2929 2939 2949 2966 2962 2965 2936 2909 2960 2950 2852 2945 2942 2918 2885 2952 2897 2935 2896 2958 2951 2960 2875 2932 2945 2931 2946 2927 2954 2950 2946 2895 2936 2956 2902 2896 2955 2925 2933 2970 2915 2905 2938 2867 2952 2971 2933 2906 2902 2940 2945 2938 2892 2944 2937 2903 2964 2917 2937 2882 2926 2982 2899 2951 2908 2902 2929 2921 2897 2925 2919 2925 2929 2931 2946 2957 2968 2951 2942 2894

Tree=0
num_leaves=25
num_cat=0
split_feature=2 1 1 2 4 5 4 6 5 8 8 6 9 22 23 23 22 6 22 23 23 22 8 16
split_gain=12119.8 46558.9 37421.9 36007 11907.7 7620.44 4716.28 4068.83 2807.69 2435.66 2410.19 2200.17 1959.2 1799.91 6443.21 4747.09 3574.62 1705.42 1511.5 7522.46 4344.33 6069.58 1364.88 1360.07
threshold=1.0000000180025095e-35 1.0000000180025095e-35 -1.0000000180025095e-35 -1.0000000180025095e-35 -1.0000000180025095e-35 -1.0000000180025095e-35 1.0000000180025095e-35 -1.0000000180025095e-35 -1.0000000180025095e-35 -1.0000000180025095e-35 1.0000000180025095e-35 -1.0000000180025095e-35 -1.0000000180025095e-35 -1.0000000180025095e-35 1.0000000180025095e-35 -1.0000000180025095e-35 1.0000000180025095e-35 -1.0000000180025095e-35 -1.0000000180025095e-35 -1.0000000180025095e-35 1.0000000180025095e-35 1.0000000180025095e-35 1.0000000180025095e-35 1.0000000180025095e-35
decision_type=2 2 2 2 2 2 2 2 2 2 2 2 2 2 2 2 2 2 2 2 2 2 2 2
left_child=2 6 3 13 -3 17 -2 9 -8 -7 -9 -10 -12 15 -15 -1 -16 -6 19 23 -20 -22 -13 -4
right_child=1 4 18 -5 5 7 8 10 11 -11 12 22 -14 14 16 -17 -18 -19 20 -21 21 -23 -24 -25
leaf_value=-0.90175135249994076 -1.1823381369548942 -1.1726570825897731 -1.1099862116628756 -1.1550140021861526 -1.0287661990612469 -0.96580378870657146 -1.2095761388698367 -0.97070851078374099 -1.1850220722679543 -1.1510853292295959 -1.0966816894130582 -1.0937801306180743 -0.89060451970423715 -1.0648853383617647 -1.0394388304720235 -1.0422549272940793 -0.90166469155706763 -1.1850864688613731 -1.193526495568721 -1.1880362378527387 -1.1859628716898829 -1.0865284720866495 -1.0084183829140314 -1.0329631176540108
leaf_weight=2481.617151081562 13527.177621915936 1551.657166287303 3260.8626676350832 13172.001246392727 507.36843658983707 584.94205994904041 1036.3466682583094 5116.3498587459326 851.46286591887474 707.21286629140377 219.97663195431232 2562.7000574022532 3891.4254060834646 5103.9750188291073 1295.4795100986958 1928.4433368891478 2470.7199039906263 830.22246904671192 29617.794097647071 9994.6225734204054 6683.1523514986038 4731.2522284984589 1261.310175999999 1515.2714429497719
leaf_count=13436 73239 8401 17655 71316 2747 3167 5611 27701 4610 3829 1191 13875 21069 27634 7014 10441 13377 4495 160357 54113 36184 25616 6829 8204
internal_value=-1.12838 -1.09375 -1.14213 -1.07632 -0.997665 -0.974766 -1.16073 -0.955563 -1.10954 -1.06721 -0.93993 -1.08737 -0.90163 -0.998264 -1.0157 -0.96319 -0.949054 -1.12579 -1.17332 -1.1549 -1.17996 -1.14475 -1.06562 -1.08555
internal_weight=0 32648.2 82255.2 26452.2 13409.2 11857.5 19239 10519.9 5711.82 1292.15 9227.75 4675.47 4111.4 13280.2 8870.17 4410.06 3766.2 1337.59 55803 14770.8 41032.2 11414.4 3824.01 4776.13
internal_count=622111 176764 445347 143218 72600 64199 104164 56957 30925 6996 49961 25314 22260 71902 48025 23877 20391 7242 302129 79972 222157 61800 20704 25859
is_linear=0
shrinkage=1


Tree=1
num_leaves=25
num_cat=0
split_feature=2 0 0 2 3 3 4 3 4 2 3 4 5 3 5 3 0 2 4 4 7 5 5 6
split_gain=10471.3 30424.8 27246.3 26816.8 13666.7 11526.4 7865.21 7018.36 9358.62 6118.27 6035.9 5787.35 4221.53 3102.98 2526.09 2463.22 2050.11 2028.72 1805.16 1720.79 1636.73 1451.91 1436.06 1311.57
threshold=-1.0000000180025095e-35 -1.0000000180025095e-35 1.0000000180025095e-35 1.0000000180025095e-35 -1.0000000180025095e-35 -1.0000000180025095e-35 -1.0000000180025095e-35 1.0000000180025095e-35 1.0000000180025095e-35 1.0000000180025095e-35 -1.0000000180025095e-35 -1.0000000180025095e-35 -1.0000000180025095e-35 1.0000000180025095e-35 -1.0000000180025095e-35 1.0000000180025095e-35 -1.0000000180025095e-35 1.0000000180025095e-35 -1.0000000180025095e-35 -1.0000000180025095e-35 -1.0000000180025095e-35 1.0000000180025095e-35 -1.0000000180025095e-35 -1.0000000180025095e-35
decision_type=2 2 2 2 2 2 2 2 2 2 2 2 2 2 2 2 2 2 2 2 2 2 2 2
left_child=1 10 7 15 11 -5 -7 16 17 21 -1 -3 20 23 -11 -4 -2 -9 -19 -17 -8 -10 -21 -14
right_child=2 4 3 5 -6 6 12 8 9 14 -12 -13 13 -15 -16 19 -18 18 -20 22 -22 -23 -24 -25
leaf_value=0.16824152509456053 -0.033964616795891744 0.13474513924585818 -0.044002872385659142 -0.068723828537529022 -0.059582667310848221 -0.033612859435434815 0.12306778859364934 -0.061834048327625561 -0.040799367464509524 -0.067411850775267748 0.074563136112471812 0.0082858868766092462 0.029525902703488222 0.20132659238376344 0.15659065872877259 -0.074000063296849716 -0.065774659649416603 -0.078682211175133784 0.024873625433760819 -0.055678761662416205 -0.046082486698048826 0.067873487591624426 0.064000870334398691 0.13861810111030201
leaf_weight=5200.0555630326271 14176.22084839642 2655.0002759099007 9059.3256427198648 1422.4126718044281 13286.049653768539 1141.1143167614937 445.06817476451397 6510.832862958312 1726.0534633249044 248.68697765469551 7699.4611366838217 4242.6389428377151 575.27968779206276 5173.9349845051765 2623.3341728597879 704.72178894281387 25750.576366633177 1015.1774831414223 3016.9098010212183 551.90302762389183 614.4960548132658 817.50585177540779 2509.442752674222 3671.6831057518721
leaf_count=27007 77978 14033 50091 7775 72241 6344 2406 36031 9542 1390 40782 22730 3115 26306 13421 3902 141698 5646 16108 3053 3402 4494 13793 18823
internal_value=0 0.031746 -0.0130454 0.0439531 -0.019754 0.111772 0.133864 -0.0394302 -0.00177559 0.07 0.112327 0.0569625 0.152099 0.166397 0.137193 -0.0250217 -0.0544804 -0.0386448 -0.00119927 0.0206374 0.0249694 -0.00587066 0.042424 0.123842
internal_weight=0 33083.2 81754.7 25869.4 20183.7 13044 11621.6 55885.3 15958.5 5415.58 12899.5 6897.64 10480.5 9420.9 2872.02 12825.4 39926.8 10542.9 4032.09 3766.07 1059.56 2543.56 3061.35 4246.96
internal_count=622111 176793 445318 139010 109004 68171 60396 306308 86632 28847 67789 36763 54052 48244 14811 70839 219676 57785 21754 20748 5808 14036 16846 21938
is_linear=0
shrinkage=0.0671755


Tree=2
num_leaves=25
num_cat=0
split_feature=2 0 0 2 3 3 3 2 3 3 3 6 0 9 8 7 7 6 8 10 2 3 7 3
split_gain=9036.34 24948.6 23806.2 21970.3 12038.1 9273.83 6401.17 7908.47 4464.7 3667.72 2196.89 2085.35 1943.81 1813.65 1826 1627.5 1041.09 1387.8 1093.43 1032.4 1030.2 1043.8 886.416 867.96
threshold=-1.0000000180025095e-35 -1.0000000180025095e-35 1.0000000180025095e-35 1.0000000180025095e-35 -1.0000000180025095e-35 -1.0000000180025095e-35 1.0000000180025095e-35 1.0000000180025095e-35 -1.0000000180025095e-35 1.0000000180025095e-35 1.0000000180025095e-35 -1.0000000180025095e-35 -1.0000000180025095e-35 1.0000000180025095e-35 -1.0000000180025095e-35 -1.0000000180025095e-35 1.0000000180025095e-35 -1.0000000180025095e-35 -1.0000000180025095e-35 -1.0000000180025095e-35 1.0000000180025095e-35 -1.0000000180025095e-35 -1.0000000180025095e-35 1.0000000180025095e-35
decision_type=2 2 2 2 2 2 2 2 2 2 2 2 2 2 2 2 2 2 2 2 2 2 2 2
left_child=1 8 6 10 -3 -5 12 -8 -1 16 -4 22 20 -13 -15 -16 -7 -18 -19 -17 21 -2 -9 -10
right_child=2 4 3 5 -6 9 7 11 23 -11 -12 13 -14 14 15 19 17 18 -20 -21 -22 -23 -24 -25
leaf_value=0.14528326303422465 0.0089215955229901295 0.051611166837239035 -0.042056796350728072 -0.066563426806185239 -0.057402194338969058 0.058473722677984757 -0.044155161637736896 0.051608485278410027 0.080546269747228089 0.15276097945398104 0.018979015640927129 0.039485598420381685 -0.063625128403005993 -0.085058532096802822 -0.08459058461683347 -0.028406757663409579 -0.063890321350406107 -0.032864273550767736 0.14955644103921448 0.16755726426101458 -0.059446715053259679 -0.036980323417813939 -0.071103047140302106 0.030691790327770301
leaf_weight=5601.4636889398098 3549.3837893754244 7086.2222544550896 8849.1783638596535 1371.68360465765 12878.517440453172 3812.3160654455423 8833.3003348708153 399.87422628700733 5816.3077710717916 6408.4336312115192 3805.3978425562382 3754.367850124836 24863.064003407955 184.13474678993225 139.72832341492176 130.77239067852497 174.34229883551598 161.99217134714127 1747.9099143445492 1673.8758806139231 4336.2375790476799 6038.9280231446028 791.08964748680592 2161.679302200675
leaf_count=27007 19964 36763 50091 7775 72241 19516 50067 2120 29657 30598 20748 19485 141698 995 757 693 963 843 8476 8198 24001 34013 4317 11125
internal_value=0 0.0290694 -0.0123899 0.0400886 -0.0187092 0.0991122 -0.0376542 -0.00176866 0.0993144 0.117581 -0.0237024 0.0511603 -0.0523711 0.067571 0.117107 0.136254 0.0793461 0.117522 0.134083 0.153356 -0.0322763 -0.0199883 -0.0299004 0.0670383
internal_weight=0 33544.2 81026 26331.3 19964.7 13676.7 54694.8 15907.1 13579.5 12305 12654.6 7073.84 38787.6 5882.88 2128.51 1944.38 5896.56 2084.24 1909.9 1804.65 13924.5 9588.31 1190.96 7977.99
internal_count=622111 176793 445318 139010 109004 68171 306308 86632 67789 60396 70839 36565 219676 30128 10643 9648 29798 10282 9319 8891 77978 53977 6437 40782
is_linear=0
shrinkage=0.0671755


Tree=3
num_leaves=25
num_cat=0
split_feature=1 2 2 1 0 0 3 3 0 3 3 0 2 22 23 23 22 21 21 0 3 21 21 3
split_gain=8676.72 31334.4 28514.7 22952 10646.9 9942.47 8193.52 7990.24 4298.25 3894.9 3742.04 2030.34 2025.72 1394.02 6555.55 4037.9 5248.48 4112.79 2805.41 1388.19 1282.95 1245.32 849.403 765.369
threshold=-1.0000000180025095e-35 -1.0000000180025095e-35 1.0000000180025095e-35 1.0000000180025095e-35 -1.0000000180025095e-35 1.0000000180025095e-35 -1.0000000180025095e-35 1.0000000180025095e-35 -1.0000000180025095e-35 1.0000000180025095e-35 -1.0000000180025095e-35 1.0000000180025095e-35 1.0000000180025095e-35 -1.0000000180025095e-35 -1.0000000180025095e-35 1.0000000180025095e-35 1.0000000180025095e-35 1.0000000180025095e-35 -1.0000000180025095e-35 1.0000000180025095e-35 -1.0000000180025095e-35 -1.0000000180025095e-35 -1.0000000180025095e-35 -1.0000000180025095e-35
decision_type=2 2 2 2 2 2 2 2 2 2 2 2 2 2 2 2 2 2 2 2 2 2 2 2
left_child=1 4 13 9 -1 7 -6 -5 12 19 -7 -11 20 14 18 -15 -17 21 -2 -4 -3 -18 -16 -10
right_child=2 8 3 5 6 10 -8 -9 23 11 -12 -13 -14 15 22 16 17 -19 -20 -21 -22 -23 -24 -25
leaf_value=0.15409265468514127 0.10886138820782668 0.098019032155187119 -0.066792703800430661 -0.029677267092437759 0.11804023278350383 -0.068881534165491323 -0.029921281103268513 0.11627430952950613 -0.023687220192830937 -0.0078158913330388796 0.15862782213050941 0.085532166906869947 -0.048400025991508687 -0.061346071324107812 -0.022898740149997661 -0.05364633751428069 -0.082920096065365975 0.11819320474168991 0.0021444988732279161 -0.0086643587452645329 0.017359990480697366 0.01644636195295307 -0.068152041764972776 -0.061116708539356211
leaf_weight=7977.0584269315004 1737.1428412348032 1349.7378217577934 5948.9747053533792 3582.98538826406 3185.5482724457979 340.34201806783676 3594.5057771205902 3208.1807207018137 3331.2725098729134 2670.4793034046888 7856.5046862363815 1734.1759136021137 1431.2562180310488 27770.031430438161 2578.8879954516888 6298.6162480413914 773.24190625548363 1848.0341094136238 3086.9604269266129 2693.3580551594496 2611.9004820436239 2155.9491301029921 6826.8669893890619 9485.4220983833075
leaf_count=36846 9181 7507 35033 19854 15426 1924 19630 15357 19556 14119 35465 8230 8066 160357 14761 36184 4230 9775 16678 14363 14942 11611 39352 53664
internal_value=0 0.0287389 -0.0121318 0.0426711 0.101489 0.0993804 0.0395972 0.0392711 -0.0302179 -0.0224748 0.149181 0.0289367 0.0200952 -0.0410791 -0.0230914 -0.0476683 -0.0133742 0.039723 0.0405737 -0.0486774 0.0448417 -0.00978446 -0.0557447 -0.0513884
internal_weight=0 32966.7 81110.7 28035 14757.1 14988 6780.05 6791.17 18209.6 13047 8196.85 4404.66 5392.89 53075.7 14229.9 38845.9 11075.8 4777.23 4824.1 8642.33 3961.64 2929.19 9405.75 12816.7
internal_count=622111 175637 446474 144345 71902 72600 35056 35211 103735 71745 37389 22349 30515 302129 79972 222157 61800 25616 25859 49396 22449 15841 54113 73220
is_linear=0
shrinkage=0.0671755


Tree=4
num_leaves=25
num_cat=0
split_feature=0 0 3 3 5 6 7 8 3 3 5 6 7 8 21 23 23 21 20 8 7 6 20 6
split_gain=6308.92 15261.1 8791.92 4775.78 3824.24 2560.55 2038.86 1817.49 1663.26 3390.9 2835.72 1854.16 1617.36 1457.74 1321.23 3702.58 3428.95 1938.79 1714.41 1263.64 3164.19 1476.18 1258.86 1107.28
threshold=-1.0000000180025095e-35 1.0000000180025095e-35 1.0000000180025095e-35 -1.0000000180025095e-35 -1.0000000180025095e-35 -1.0000000180025095e-35 -1.0000000180025095e-35 1.0000000180025095e-35 -1.0000000180025095e-35 1.0000000180025095e-35 1.0000000180025095e-35 -1.0000000180025095e-35 -1.0000000180025095e-35 -1.0000000180025095e-35 1.0000000180025095e-35 1.0000000180025095e-35 -1.0000000180025095e-35 -1.0000000180025095e-35 -1.0000000180025095e-35 1.0000000180025095e-35 1.0000000180025095e-35 -1.0000000180025095e-35 1.0000000180025095e-35 -1.0000000180025095e-35
decision_type=2 2 2 2 2 2 2 2 2 2 2 2 2 2 2 2 2 2 2 2 2 2 2 2
left_child=3 8 19 -1 23 12 13 -8 -2 -10 -11 -12 -6 -7 16 22 17 -5 -17 -3 -21 -22 -16 -4
right_child=1 2 4 14 5 6 7 -9 9 10 11 -13 -14 -15 15 18 -18 -19 -20 20 21 -23 -24 -25
leaf_value=0.060515078398657024 -0.01476312692613433 -0.012504428680011594 0.050006205760948309 0.087014929012380476 0.085597840890001886 0.09882975562036414 0.080497535384932345 0.14544290187476971 -0.059929817606223158 -0.037059052916683655 -0.07130748647235631 0.051512412950358397 -0.057851625959842765 -0.050212824621823401 -0.034981983753759036 -0.06013288373389996 -0.025139720111645534 0.0039905974645717745 0.11720943321600787 -0.013855469034130555 -0.063592131962740925 0.10445886879428261 0.047635981767664981 -0.066280038561526672
leaf_weight=10952.853573933244 12826.678593158722 14986.294308692217 566.00322611629963 2313.2728756219149 609.28274673223495 535.60663548111916 4203.0160572230816 3619.0548840612173 20895.711949124932 9044.0036274045706 666.02577704191208 3316.365808993578 848.63522936403751 662.2108498364687 2615.709754139185 277.44520910084248 10920.240020528436 2812.2768003344536 2167.3984123170376 3845.2316963523626 266.20585259795189 2068.0022817254066 1220.5538960695267 1064.174101382494
leaf_count=54676 72597 83124 2967 11775 2950 2547 20385 16415 126135 51344 3863 17762 4522 3502 14492 1517 60055 15098 10846 21197 1548 10298 6529 5967
internal_value=0 -0.0106198 0.0241523 0.0241828 0.0698067 0.0846979 0.0980487 0.110547 -0.0353692 -0.0431607 -0.016261 0.0309709 0.00209751 0.0164318 0.00635917 0.0324776 -0.00386485 0.0414619 0.0970832 -0.00196453 0.0235964 0.0852921 -0.00869553 -0.025904
internal_weight=0 80022.5 33273.7 33279.8 12108 10477.8 9019.89 7822.07 46748.8 33922.1 13026.4 3982.39 1457.92 1197.82 22326.9 6281.11 16045.8 5125.55 2444.84 21165.7 6179.44 2334.21 3836.26 1630.18
internal_count=622111 447123 175422 174988 59255 50321 42849 36800 271701 199104 72969 21625 7472 6049 120312 33384 86928 26873 12363 116167 33043 11846 21021 8934
is_linear=0
shrinkage=0.0671755


Tree=5
num_leaves=25
num_cat=0
split_feature=1 2 2 1 0 0 0 4 0 4 2 4 4 5 4 4 5 0 1 2 2 4 0 1
split_gain=7488.61 25628.2 24155.5 18421.6 7402.23 6927.31 3606.1 3241 3160.45 1875.54 1699.1 1590.22 1538.2 1506.78 1232 1162.55 1144.4 1073.25 3475.19 2420.21 2053.49 1982.98 1983.87 1676.31
threshold=-1.0000000180025095e-35 -1.0000000180025095e-35 1.0000000180025095e-35 1.0000000180025095e-35 -1.0000000180025095e-35 1.0000000180025095e-35 -1.0000000180025095e-35 1.0000000180025095e-35 1.0000000180025095e-35 -1.0000000180025095e-35 1.0000000180025095e-35 -1.0000000180025095e-35 1.0000000180025095e-35 -1.0000000180025095e-35 -1.0000000180025095e-35 -1.0000000180025095e-35 1.0000000180025095e-35 1.0000000180025095e-35 1.0000000180025095e-35 -1.0000000180025095e-35 -1.0000000180025095e-35 -1.0000000180025095e-35 -1.0000000180025095e-35 1.0000000180025095e-35
decision_type=2 2 2 2 2 2 2 2 2 2 2 2 2 2 2 2 2 2 2 2 2 2 2 2
left_child=1 4 17 8 -1 7 10 14 12 -6 -3 -7 -4 -9 -5 -10 -14 19 -19 21 -20 -2 23 -23
right_child=2 6 3 5 9 11 -8 13 15 -11 -12 -13 16 -15 -16 -17 -18 18 20 -21 -22 22 -24 -25
leaf_value=0.13216423682836106 0.015606900151766055 0.038661699094293643 -0.065090912637024489 -0.065506017676377412 0.086262934430305138 0.0096009616960981321 -0.04856595045095749 -0.062280039459810192 -0.05446651644132143 0.012264538037367457 -0.046956599538292121 0.13465507140842137 -0.034213063858116316 0.11088911776324119 0.020386466495698551 0.038849274653524245 0.061540910073093792 -0.049908171650702063 -0.050024000651906958 -0.058067116241636386 0.044516371438920593 0.019210064074042341 -0.065137669359132733 -0.0760946098732381
leaf_weight=8475.742294728756 4225.2474768459797 4104.2188523858786 5757.3605890721083 989.58361393213272 2374.0217844247818 486.250553175807 12292.317437306046 250.0776574164629 716.35399897396564 4429.5449260920286 1403.6107908785343 8155.5283014178276 1688.9819492399693 2426.6083580702543 3159.191712424159 3787.7270355075598 844.97734043002129 8336.0427216738462 1409.1003286093473 23473.475869819522 3923.2520664185286 3261.8500647693872 5746.2484420984983 1118.3074825108051
leaf_count=36846 23054 22449 34955 5866 11790 2535 73220 1448 3958 23266 8066 34854 9691 11535 16362 18635 4506 48667 8240 142956 22164 16502 34775 5771
internal_value=0 0.0264543 -0.0115624 0.0383383 0.0902733 0.0876657 -0.0283268 0.03708 -0.0212892 0.0380859 0.0168424 0.127619 -0.0458957 0.0947091 -0.000101062 0.0240072 -0.00228187 -0.0389508 -0.0228174 -0.0447806 0.0195332 -0.0230491 -0.0391785 -0.00512252
internal_weight=0 33079.5 79756.2 28262.6 15279.3 15467.2 17800.1 6825.46 12795.4 6803.57 5507.83 8641.78 8291.32 2676.69 4148.78 4504.08 2533.96 51493.5 13668.4 37825.1 5332.35 14351.7 10126.4 4380.16
internal_count=622111 175637 446474 144345 71902 72600 103735 35211 71745 35056 30515 37389 49152 12983 22228 22593 14197 302129 79071 223058 30404 80102 57048 22273
is_linear=0
shrinkage=0.0671755


Tree=6
num_leaves=25
num_cat=0
split_feature=1 0 0 1 3 3 3 1 5 3 5 3 5 7 3 0 10 11 1 3 5 7 7 19
split_gain=6530.11 16530.6 16059.5 15362.9 7955.77 5728.6 4101.51 5208.17 2478.26 2229.01 1966.13 1441.26 1283.91 1256.72 1234.14 1108.57 963.263 973.752 745.753 803.3 723.387 665.319 590.797 576.998
threshold=-1.0000000180025095e-35 -1.0000000180025095e-35 1.0000000180025095e-35 1.0000000180025095e-35 -1.0000000180025095e-35 -1.0000000180025095e-35 1.0000000180025095e-35 1.0000000180025095e-35 -1.0000000180025095e-35 -1.0000000180025095e-35 -1.0000000180025095e-35 1.0000000180025095e-35 1.0000000180025095e-35 -1.0000000180025095e-35 1.0000000180025095e-35 -1.0000000180025095e-35 1.0000000180025095e-35 -1.0000000180025095e-35 1.0000000180025095e-35 -1.0000000180025095e-35 -1.0000000180025095e-35 1.0000000180025095e-35 -1.0000000180025095e-35 -1.0000000180025095e-35
decision_type=2 2 2 2 2 2 2 2 2 2 2 2 2 2 2 2 2 2 2 2 2 2 2 2
left_child=1 9 6 11 -3 -5 15 12 -9 -1 13 -4 -8 -7 21 18 -10 -18 19 -2 -13 -12 -19 -11
right_child=2 4 3 5 -6 10 7 8 16 23 14 20 -14 -15 -16 -17 17 22 -20 -21 -22 -23 -24 -25
leaf_value=0.11047275289920017 0.0043679995165845408 0.043123832802429707 -0.038299234488693885 -0.048974997699792945 -0.048531335508372374 0.092796860189672842 -0.055041346974348669 -0.056361888672947204 0.038963594653428135 0.020863454324390806 0.05851716789721418 -0.052125557548888472 0.0021487328481857399 -0.031770998530071856 0.12278968339407248 -0.054138984016911099 -0.040593205818949984 -0.0019661723641842253 -0.053272083268069766 -0.035238204974970128 0.02324368145807193 0.10816929136281785 0.12823594469111591 0.065355805440749135
leaf_weight=5940.2687633633614 3789.7459686994553 6542.1423943042755 8602.5176690369844 1421.1881951242685 12323.976658344269 632.67604719102383 5973.1138310581446 990.24223433434963 3688.7592589408159 1635.1153445243835 3072.4128369688988 693.53238762915134 2518.1371974945068 865.21334147453308 6230.4790469408035 22691.500101059675 204.25066541135311 175.4955482929945 4342.1336324959993 5921.4635416269302 3351.4071710556746 2017.879775673151 1511.872430101037 6727.7049537301064
leaf_count=26355 20136 34982 50331 8069 73294 3161 36005 5887 19578 8231 15387 4029 14242 4806 27089 143352 1143 964 24409 34403 16900 9281 7302 32775
internal_value=0 0.0245432 -0.0109934 0.0311301 -0.0167483 0.0789846 -0.0328553 -0.003333 0.041572 0.0790077 0.0931715 -0.0227495 -0.0380812 0.0208439 0.102741 -0.0449566 0.058951 0.0979252 -0.0301298 -0.019782 0.0103204 0.078201 0.114694 0.0566569
internal_weight=0 33169.2 78694 26887.3 18866.1 14239.8 51806.7 15061.9 6570.62 14303.1 12818.7 12647.5 8491.25 1497.89 11320.8 36744.8 5580.38 1891.62 14053.3 9711.21 4044.94 5090.29 1687.37 8362.82
internal_count=622111 175637 446474 139053 108276 67793 307421 85121 34874 67361 59724 71260 50247 7967 51757 222300 28987 9409 78948 54539 20929 24668 8266 41006
is_linear=0
shrinkage=0.0671755


Tree=7
num_leaves=25
num_cat=0
split_feature=1 1 3 3 4 5 4 3 4 5 6 4 6 9 10 23 21 23 21 20 5 4 11 21
split_gain=5691.43 14100 12696.8 9604.18 6667.31 3230.67 2056.15 1994.16 1931.47 2200.69 1775.94 1748.73 1683.02 1564.26 1543.72 967.297 2573.79 2788.4 2338.55 1799.55 930.831 925.332 909.534 893.544
threshold=-1.0000000180025095e-35 1.0000000180025095e-35 1.0000000180025095e-35 -1.0000000180025095e-35 -1.0000000180025095e-35 -1.0000000180025095e-35 -1.0000000180025095e-35 -1.0000000180025095e-35 -1.0000000180025095e-35 -1.0000000180025095e-35 -1.0000000180025095e-35 -1.0000000180025095e-35 -1.0000000180025095e-35 1.0000000180025095e-35 -1.0000000180025095e-35 -1.0000000180025095e-35 1.0000000180025095e-35 1.0000000180025095e-35 -1.0000000180025095e-35 -1.0000000180025095e-35 -1.0000000180025095e-35 1.0000000180025095e-35 -1.0000000180025095e-35 1.0000000180025095e-35
decision_type=2 2 2 2 2 2 2 2 2 2 2 2 2 2 2 2 2 2 2 2 2 2 2 2
left_child=3 15 7 6 -4 -6 -1 11 -9 -10 -11 20 -7 -12 -15 18 -17 -18 -2 -19 -3 -14 -16 -5
right_child=1 2 4 23 5 12 -8 8 9 10 13 -13 21 14 22 16 17 19 -20 -21 -22 -23 -24 -25
leaf_value=0.10517284266507314 0.025737436449871615 0.083079845208889835 -0.068975390709989703 -0.014431548939325819 -0.01661652520068161 0.026249027675450662 0.048684927974525213 -0.050225675739387098 -0.050538511348970763 -0.03636626898125029 0.018828060463104885 -0.070437764839541478 0.088446108946563767 -0.058677807455986594 -0.017722140360497091 -0.052932801360427086 -0.042615326341270458 -0.071196928635487225 -0.03845916303597173 0.052631128079009999 -0.023550729171410434 0.12972659708683801 0.11578958005560253 0.016788691357255664
leaf_weight=4480.8626000285149 3688.1583293378353 551.52461239695549 1352.1248017251492 14780.120205208659 1197.1499234884977 1253.1761867403984 8283.6869480907917 2626.9940278381109 1980.7099110633135 1623.1730183511972 4996.4361819624901 3915.1534829437733 4940.128203690052 308.57858358323574 258.66289407014847 23377.780452266335 5295.9585357606411 633.06822052598 8375.3896220326424 3239.2889963537455 1118.6951281279325 4863.552881360054 2094.3138782978058 5744.6277679353952
leaf_count=20883 20851 3158 7768 82987 6805 6303 40454 16226 12090 9570 27189 23224 22770 1783 1449 144186 32767 3846 50550 17866 6565 21318 10190 31313
internal_value=0 -0.0104364 0.0227963 0.0227613 0.0725856 0.0882059 0.0685148 -0.0119901 0.00164164 0.0137407 0.0274589 -0.0458875 0.0995554 0.0409874 0.0825851 -0.0350802 -0.0411026 -0.0109372 -0.0188324 0.0323864 0.0116601 0.108926 0.101112 -0.0056933
internal_weight=0 77690 33080.4 33289.3 13606.1 12254 12764.5 19474.2 13888.9 11261.9 9281.16 5585.37 11056.9 7657.99 2661.56 44609.6 32546.1 9168.32 12063.5 3872.36 1670.22 9803.68 2352.98 20524.7
internal_count=622111 446474 176408 175637 64964 57196 61337 111444 78497 62271 50181 32947 50391 40611 13422 270066 198665 54479 71401 21712 9723 44088 11639 114300
is_linear=0
shrinkage=0.0671755


Tree=8
num_leaves=25
num_cat=0
split_feature=2 1 1 0 0 2 4 4 0 4 2 4 5 6 1 4 7 2 5 5 0 1 2 4
split_gain=5960.3 19687.9 18619.7 12427.9 5114.17 4690.17 3378 2730.12 2289.16 2269.31 1931.3 1625.08 2915.78 2049.84 1561.4 1348.01 1108.84 1046.4 1095.79 1013.84 1013.81 2208.71 1671.22 983.934
threshold=-1.0000000180025095e-35 1.0000000180025095e-35 -1.0000000180025095e-35 1.0000000180025095e-35 -1.0000000180025095e-35 1.0000000180025095e-35 -1.0000000180025095e-35 -1.0000000180025095e-35 -1.0000000180025095e-35 1.0000000180025095e-35 1.0000000180025095e-35 1.0000000180025095e-35 1.0000000180025095e-35 1.0000000180025095e-35 1.0000000180025095e-35 -1.0000000180025095e-35 -1.0000000180025095e-35 1.0000000180025095e-35 -1.0000000180025095e-35 -1.0000000180025095e-35 -1.0000000180025095e-35 -1.0000000180025095e-35 1.0000000180025095e-35 -1.0000000180025095e-35
decision_type=2 2 2 2 2 2 2 2 2 2 2 2 2 2 2 2 2 2 2 2 2 2 2 2
left_child=2 11 4 5 -1 -3 -5 -4 14 23 -8 20 17 -14 -9 -6 -15 -13 -19 -11 21 22 -2 -7
right_child=1 3 7 6 15 9 10 8 -10 19 -12 12 13 16 -16 -17 -18 18 -20 -21 -22 -23 -24 -25
leaf_value=0.10980240169030313 0.032594463035634139 -0.04469690338667371 0.016140222722275881 -0.026455579081459981 0.072473693539051948 -0.061436337566745242 0.050607706947437804 0.021769536404681208 -0.06235449056129902 -0.057023661580096627 0.1102059794285041 -0.05527030583327 -0.0030406550725440799 -0.0515237818316268 -0.072406464829800121 0.01069654033068196 0.121196695027873 -0.074856034265634738 0.010981641025868481 0.090912373219280584 -0.050937847185533076 -0.053249020079171525 -0.066882364170994996 0.017767175860521331
leaf_weight=8891.7160037457943 3383.7701303362846 7579.2854183614254 5301.1618321090937 1176.3439696580172 2483.8691872954369 911.05350644886494 3460.0746475607157 3204.875595703721 8134.2675643265247 227.67081496119499 8436.6875751465559 5701.158566609025 2773.6819316595793 195.11054112017155 1056.2203417271376 4448.5598236322403 1193.8082490563393 880.22430285811424 2824.4731639027596 2551.1226545423269 25526.111585766077 5720.0996329188347 983.59047323465347 3171.7511947900057
leaf_count=36846 17358 48807 30168 6537 11790 5866 18162 16502 52450 1448 34854 35968 15897 1144 5771 23266 6446 5611 15355 11535 162201 36079 5688 16362
internal_value=0 -0.0108193 0.0231374 0.0346848 0.0760823 -0.00827131 0.0821351 -0.0242057 -0.0414606 0.031964 0.0928726 -0.0362758 -0.0164928 0.030317 -0.00157449 0.0328316 0.0969318 -0.0372088 -0.00941331 0.0787907 -0.0438129 -0.025783 0.0101902 9.26657e-05
internal_weight=0 76696 33520.7 27514 15824.1 14440.9 13073.1 17696.5 12395.4 6861.6 11896.8 49182 13568.5 4162.6 4261.1 6932.43 1388.92 9405.86 3704.7 2778.79 35613.6 10087.5 4367.36 4082.8
internal_count=622111 445318 176793 143571 71902 84018 59553 104891 74723 35211 53016 301747 80421 23487 22273 35056 7590 56934 20966 12983 221326 59125 23046 22228
is_linear=0
shrinkage=0.0671755


Tree=9
num_leaves=25
num_cat=0
split_feature=22 23 23 22 21 21 24 21 24 21 24 19 21 22 23 21 23 22 24 21 23 19 24 21
split_gain=6386.31 21193.6 19235.6 16972.5 7819.3 5807.04 5784.08 4931.92 4220.97 2961.5 2046.14 1602.31 1319.27 4098.01 926.693 920.399 1352.13 1774.59 1318.82 850.286 833.652 704.563 675.357 669.746
threshold=1.0000000180025095e-35 1.0000000180025095e-35 -1.0000000180025095e-35 -1.0000000180025095e-35 -1.0000000180025095e-35 1.0000000180025095e-35 -1.0000000180025095e-35 -1.0000000180025095e-35 1.0000000180025095e-35 1.0000000180025095e-35 -1.0000000180025095e-35 -1.0000000180025095e-35 -1.0000000180025095e-35 -1.0000000180025095e-35 -1.0000000180025095e-35 1.0000000180025095e-35 1.0000000180025095e-35 -1.0000000180025095e-35 1.0000000180025095e-35 -1.0000000180025095e-35 1.0000000180025095e-35 -1.0000000180025095e-35 1.0000000180025095e-35 -1.0000000180025095e-35
decision_type=2 2 2 2 2 2 2 2 2 2 2 2 2 2 2 2 2 2 2 2 2 2 2 2
left_child=2 5 3 6 -3 -2 -1 -8 9 -6 23 -7 13 20 -13 -14 -17 -18 -19 -12 -4 -11 -16 -5
right_child=1 4 12 10 8 11 7 -9 -10 21 19 14 15 -15 22 16 17 18 -20 -21 -22 -23 -24 -25
leaf_value=0.13125317233367237 -0.050477690592387763 -0.070876437840118628 0.042059826572874263 0.058454633671097107 0.012712651296548656 -0.045151794032266421 0.10485778773078643 -0.0061870476625274376 0.14111587012256213 0.024284929425276696 -0.0077858437432032747 -0.0024657974653117245 -0.049335572531561837 -0.048287734692887017 0.04293891540925323 -0.044456458498668146 -0.068934582105066922 -0.0072479283398234097 0.073867376627505782 -0.054723289076011289 -0.015384236120399237 0.11702897322003768 0.10379881307821333 -0.0013780439563351188
leaf_weight=6724.3943937569857 11983.157267436385 1287.8060958385468 4149.0121871680021 1273.1686043739319 2829.1209845542908 1028.1355762034655 3337.4244279116392 3930.2475848197937 6419.8699654191732 421.62806911766529 2476.3667161613703 1257.6669892966747 24002.911859467626 7945.6605181545019 2319.89462415874 8154.3951802104712 1294.8157005161047 2533.3159781992435 1406.6845857650042 5870.3062430620193 1571.8952489793301 3000.6915208995342 1275.1659085899591 2505.4756742417812
leaf_count=31574 73157 7781 22953 6739 15409 6244 15883 21728 29660 2162 14126 7279 146815 48583 12892 49378 7791 14310 7318 35912 9220 14036 6591 14570
internal_value=0 0.0248128 -0.0109502 0.0359411 0.0868286 -0.0236469 0.0863519 0.0448065 0.102857 0.0635659 -0.0222307 0.0310248 -0.034936 -0.0170748 0.0471646 -0.041464 -0.0273525 -0.000708875 0.0217125 -0.0407977 0.0262761 0.105604 0.0645271 0.0187819
internal_weight=0 31823.1 77176.1 26117.4 13959.1 17864 13992.1 7267.67 12671.3 6251.44 12125.3 5880.86 51058.7 13666.6 4852.73 37392.1 13389.2 5234.82 3940 8346.67 5720.91 3422.32 3595.06 3778.64
internal_count=622111 175211 446900 140532 69048 106163 69185 37611 61267 31607 71347 33006 306368 80756 26762 225612 78797 29419 21628 50038 32173 16198 19483 21309
is_linear=0
shrinkage=0.0671755


Tree=10
num_leaves=25
num_cat=0
split_feature=22 21 22 21 20 21 20 20 16 17 20 16 17 18 18 2 1 1 0 0 2 15 15 15
split_gain=5571.76 15514.3 13471.1 11484.1 6283.5 3838.02 2629.33 1818.06 1805.15 2857.61 1744.9 1316.36 1437.29 1263.23 1148.09 1105.95 3912.2 3157.07 2784 1861.1 1226.24 1067.68 1053.63 883.487
threshold=1.0000000180025095e-35 1.0000000180025095e-35 -1.0000000180025095e-35 -1.0000000180025095e-35 -1.0000000180025095e-35 -1.0000000180025095e-35 -1.0000000180025095e-35 -1.0000000180025095e-35 1.0000000180025095e-35 1.0000000180025095e-35 1.0000000180025095e-35 1.0000000180025095e-35 -1.0000000180025095e-35 -1.0000000180025095e-35 -1.0000000180025095e-35 -1.0000000180025095e-35 -1.0000000180025095e-35 1.0000000180025095e-35 1.0000000180025095e-35 -1.0000000180025095e-35 1.0000000180025095e-35 1.0000000180025095e-35 -1.0000000180025095e-35 -1.0000000180025095e-35
decision_type=2 2 2 2 2 2 2 2 2 2 2 2 2 2 2 2 2 2 2 2 2 2 2 2
left_child=2 5 3 6 -3 -2 -1 -7 -5 21 -6 -8 -13 -11 -14 16 19 -17 -19 -4 -20 -10 -15 -16
right_child=1 4 15 8 10 7 11 -9 9 13 -12 12 14 22 23 17 -18 18 20 -21 -22 -23 -24 -25
leaf_value=0.11286916716904309 -0.067909744380293124 -0.059886990853626115 0.070115723870284863 -0.022656831709704936 0.069252145938075105 -0.047661861698992572 0.028708888290489776 0.013796580108514547 -0.041114606737986392 -0.066589075264911535 0.12059986720830818 -0.064525840172001733 -0.054641632746319273 -0.053804164979744343 -0.036504612034745434 -0.055411061708460094 -0.04818894689003924 -0.039054814590822474 -0.011610266998475938 -0.010977131283874246 0.06345165587578247 0.038084705034529015 0.11518446264608803 0.1263851999437855
leaf_weight=4698.6238273829222 4865.6259667128325 1333.588685542345 2449.8466765880585 13681.068963617086 6238.39182536304 2710.7157540470362 5016.4159934967756 10929.420088365674 2367.0583309829235 230.70611494034529 5729.6889062225819 258.23353360593319 195.02875259518623 183.48953260481358 161.47236810624599 21689.643885716796 7572.9100596904755 5974.2120907604694 1653.4668402224779 2667.7668091505766 2418.6148749738932 1137.0371333956718 1794.1598732918501 2158.1061812341213
leaf_count=22456 30783 7843 10166 80916 31257 16495 26373 61971 14219 1414 26862 1506 1123 1113 896 142064 48221 37532 9251 14072 10345 6268 8912 10053
internal_value=0 0.0230865 -0.0103793 0.0229388 0.0784232 -0.0166886 0.0731817 0.0015827 -0.00941368 0.0223028 0.0938351 0.0492409 0.0863845 0.0821509 0.101883 -0.0342891 -0.0175281 -0.0409914 -0.00985965 0.0278427 0.0329726 -0.0154149 0.099504 0.115045
internal_weight=0 31807.4 76307.9 31881.4 13301.7 18505.8 12487.9 13640.1 19393.5 5712.45 11968.1 7789.26 2772.84 2208.36 2514.61 44426.5 12690.5 31735.9 10046.3 5117.61 4072.08 3504.1 1977.65 2319.58
internal_count=622111 175211 446900 175249 65962 109249 62407 78466 112842 31926 58119 39951 13578 11439 12072 271651 72459 199192 57128 24238 19596 20487 10025 10949
is_linear=0
shrinkage=0.0671755


Tree=11
num_leaves=25
num_cat=0
split_feature=22 23 23 22 21 24 21 21 20 20 24 24 21 21 20 22 20 21 22 18 22 20 21 23
split_gain=4862.15 17322.1 16288.9 12979.1 5925.49 4599.29 4435.66 3575.73 3486.14 2701.97 2314.38 1822.66 1763.81 1029.43 3648.23 1534.47 1310.29 1866.44 1126 891.615 853.38 824.564 791.722 749.967
threshold=1.0000000180025095e-35 1.0000000180025095e-35 -1.0000000180025095e-35 -1.0000000180025095e-35 -1.0000000180025095e-35 -1.0000000180025095e-35 1.0000000180025095e-35 -1.0000000180025095e-35 -1.0000000180025095e-35 1.0000000180025095e-35 1.0000000180025095e-35 -1.0000000180025095e-35 1.0000000180025095e-35 -1.0000000180025095e-35 -1.0000000180025095e-35 -1.0000000180025095e-35 1.0000000180025095e-35 1.0000000180025095e-35 -1.0000000180025095e-35 -1.0000000180025095e-35 -1.0000000180025095e-35 -1.0000000180025095e-35 -1.0000000180025095e-35 1.0000000180025095e-35
decision_type=2 2 2 2 2 2 2 2 2 2 2 2 2 2 2 2 2 2 2 2 2 2 2 2
left_child=2 6 3 5 -3 -1 -2 -7 19 21 12 -5 -10 14 15 -4 -15 -18 -16 -6 -19 -8 -13 -22
right_child=1 4 13 11 8 7 9 -9 10 -11 -12 22 -14 16 18 -17 17 20 -20 -21 23 -23 -24 -25
leaf_value=0.11513140841655385 -0.047658857850591235 -0.066994151823108611 0.073136301724130354 0.019361912617783514 0.054958651038136304 0.088457608456260592 -0.06982105456355317 -0.0052337853045829009 0.025290494946814318 0.078312556996225038 0.12930962458900894 -0.0054208357951550821 0.10148220403292892 -0.046367606668193888 -0.012583932139426605 -0.0063913499950236973 -0.042021523101733418 -0.033981288224845987 -0.060661680536200052 -0.061775532869107232 0.004494208076850195 0.0047628648354878893 -0.051503622688507444 0.072390664211751193
leaf_weight=6962.4661512374878 11508.092447951436 1190.03029871732 2204.9952037334442 3730.9503030627966 478.22209186851978 3482.6106847077608 879.45168264955282 3892.8270757049322 2348.1854773908854 2421.1284393966198 6168.7920188754797 2414.2633479088545 3295.1626922041178 26059.360958918929 3721.8295464515686 2174.4202874824405 5759.3582917824388 1061.4996641650796 5370.0811387747526 771.58897839486599 1569.2968320995569 2793.2946023195982 5549.9282418340445 1379.4762682616711
leaf_count=31574 73157 7781 11050 21309 2471 15883 5613 21728 12481 11986 27209 14126 14696 165708 21123 13486 36796 6504 35097 4410 9424 15407 35912 7180
internal_value=0 0.0214545 -0.00985103 0.0331348 0.0765065 0.0759729 -0.02312 0.0390064 0.0895806 0.0232207 0.100869 -0.0193834 0.0697796 -0.0325498 -0.016719 0.0336501 -0.0385019 -0.0175208 -0.040981 -0.0171075 0.0176656 -0.0130967 -0.0375344 0.0362581
internal_weight=0 31853.9 75333.4 26033 14252 14337.9 17602 7375.44 13062 6093.87 11812.1 11695.1 5643.35 49300.3 13471.3 4379.42 35829 9769.63 9091.91 1249.81 4010.27 3672.75 7964.19 2948.77
internal_count=622111 175211 446900 140532 69048 69185 106163 37611 61267 33006 54386 71347 27177 306368 80756 24536 225612 59904 56220 6881 23108 21020 50038 16604
is_linear=0
shrinkage=0.0671755


Tree=12
num_leaves=25
num_cat=0
split_feature=22 23 23 22 20 20 16 18 14 13 12 16 11 12 13 14 23 16 14 18 20 23 13 20
split_gain=4260.19 14955.7 14345.8 11102.8 3239.7 2575.24 1416.51 1484.44 1048.59 3015.99 1704.06 1074.41 1004.16 910.184 879.929 842.051 775.012 761.662 771.667 730.954 627.958 599.026 560.259 541.636
threshold=1.0000000180025095e-35 1.0000000180025095e-35 -1.0000000180025095e-35 -1.0000000180025095e-35 -1.0000000180025095e-35 1.0000000180025095e-35 1.0000000180025095e-35 -1.0000000180025095e-35 1.0000000180025095e-35 1.0000000180025095e-35 -1.0000000180025095e-35 1.0000000180025095e-35 -1.0000000180025095e-35 1.0000000180025095e-35 -1.0000000180025095e-35 -1.0000000180025095e-35 -1.0000000180025095e-35 1.0000000180025095e-35 1.0000000180025095e-35 -1.0000000180025095e-35 1.0000000180025095e-35 -1.0000000180025095e-35 -1.0000000180025095e-35 -1.0000000180025095e-35
decision_type=2 2 2 2 2 2 2 2 2 2 2 2 2 2 2 2 2 2 2 2 2 2 2 2
left_child=2 5 3 6 19 16 -1 -8 -4 11 -11 -10 -12 -14 -13 22 -2 -5 -19 -3 -6 -7 -9 -18
right_child=1 4 8 17 20 21 7 15 9 10 12 14 13 -15 -16 -17 23 18 -20 -21 -22 -23 -24 -25
leaf_value=0.053611180144096014 -0.065662069897093375 0.038647923518023042 -0.036968867774732628 -0.02918188068948975 0.068724934413323502 -0.018882480879393128 -0.025453161886934587 0.094077027978787336 -0.051728035971969413 -0.066511036113599709 -0.030628894629112152 -0.067625659203096974 0.034501379609905035 0.1108767855576545 0.022344050602142902 0.11550357742315544 -0.055549805749219736 -0.013447088038794902 0.056203303608542574 -0.057092435524151393 0.098700590319221168 0.030110681553558751 -0.05584924537079404 -0.017379275378909455
leaf_weight=9059.4172794520855 3591.4973957836628 573.99909880012274 35456.122862718999 8276.0508730486035 7234.2645136192441 1580.5214386284351 413.48044095933437 225.17759601771832 6233.7555073872209 647.01808557659388 550.64545821398497 655.83756729215384 1584.0490723103285 1267.6823730841279 1945.959857814014 4602.305780351162 2346.6446766629815 2220.9169246181846 1060.5310378968716 964.36524617671967 5592.521579824388 3916.8836946189404 224.64198707044125 5884.0038755014539
leaf_count=44280 23310 3031 226236 51720 34577 9327 2183 1036 40460 4282 3517 4340 9280 6700 11553 20492 15709 13620 6007 5871 25569 21918 1194 35899
internal_value=0 0.0200708 -0.00934085 0.0308106 0.0707469 -0.0219608 0.069906 0.0969145 -0.0310046 -0.0145925 0.0334144 -0.0365945 0.0524178 0.0684541 -0.000334837 0.10693 -0.0396245 -0.0183231 0.0090632 -0.0213686 0.0817948 0.0160247 0.0192018 -0.0282625
internal_weight=0 31684.7 74423.6 26082.5 14365.2 17319.6 14525 5465.61 48341.1 12884.9 4049.39 8835.55 3402.38 2851.73 2601.8 5052.13 11822.1 11557.5 3281.45 1538.36 12826.8 5497.41 449.82 8230.65
internal_count=622111 175211 446900 140532 69048 106163 69185 24905 306368 80132 23779 56353 19497 15980 15893 22722 74918 71347 19627 8902 60146 31245 2230 51608
is_linear=0
shrinkage=0.0671755


Tree=13
num_leaves=25
num_cat=0
split_feature=2 1 1 3 4 2 3 4 3 3 4 3 2 2 3 1 2 4 3 6 4 6 7 6
split_gain=4299.69 14401.5 12886.1 8535.32 3835.2 3830.23 3223.13 3135.83 2980.7 2747.02 1386.44 3848.41 2081.15 1270.07 1020.02 1578.55 1185.39 985.747 969.614 656.695 622.493 583.151 653.331 489.323
threshold=-1.0000000180025095e-35 1.0000000180025095e-35 -1.0000000180025095e-35 1.0000000180025095e-35 -1.0000000180025095e-35 1.0000000180025095e-35 -1.0000000180025095e-35 -1.0000000180025095e-35 -1.0000000180025095e-35 -1.0000000180025095e-35 1.0000000180025095e-35 1.0000000180025095e-35 1.0000000180025095e-35 1.0000000180025095e-35 -1.0000000180025095e-35 -1.0000000180025095e-35 1.0000000180025095e-35 -1.0000000180025095e-35 1.0000000180025095e-35 -1.0000000180025095e-35 -1.0000000180025095e-35 -1.0000000180025095e-35 1.0000000180025095e-35 1.0000000180025095e-35
decision_type=2 2 2 2 2 2 2 2 2 2 2 2 2 2 2 2 2 2 2 2 2 2 2 2
left_child=2 10 9 5 -5 -3 7 -4 -7 -1 14 23 -13 21 15 16 -2 -10 -11 -14 -17 -6 -23 -12
right_child=1 3 6 4 13 8 -8 -9 17 18 11 12 19 -15 -16 20 -18 -19 -20 -21 -22 22 -24 -25
leaf_value=0.091994520589019094 0.030682226314609203 -0.039636280814988149 0.08123881380325372 -0.0610483812758498 -0.014544507739522077 -0.064048454541192762 -0.04236003142431926 -0.020994522842583376 -0.02881770877794124 0.049820720183280404 -0.050837114329404347 -0.013030620533936669 -0.016243832908477248 0.096644369601476238 -0.047053703248616047 -0.014491991369954717 -0.056931618547348121 0.058466311540929163 -0.0027857293067773568 0.091129059146048116 -0.06330317184949541 0.036031356123382374 0.10415538542440989 -0.014519406151519441
leaf_weight=7674.1991909593344 3098.1481613516808 7269.4699844196439 2260.352284014225 915.9713241532445 570.90654746443033 1275.5517505481839 11112.632417403162 3376.0293020457029 655.01106572151184 6031.8549319207668 6058.4504635706544 2096.0814770758152 292.0017899274826 7877.6944306194782 23921.810169100761 1859.1993787735701 899.02369029819965 5373.1113276183605 2142.5942873507738 2144.7319997474551 3223.1317668035626 1807.7428417280316 979.56201001256704 2313.531894274056
leaf_count=32424 16873 48996 11321 5856 3418 7809 73545 20025 4264 28861 40615 13304 1648 33378 162936 12949 5651 25154 10617 10093 22917 9791 4905 14761
internal_value=0 -0.00965432 0.0197115 0.0295496 0.071123 -0.00511665 -0.0213732 0.020004 0.0292412 0.0631303 -0.0324775 -0.0138086 0.0360459 0.0818981 -0.0397778 -0.0206076 0.0109759 0.0489818 0.036032 0.0782616 -0.0454477 0.0473054 0.0599742 -0.0408013
internal_weight=0 72631.1 32597.7 26725 12151.9 14573.1 16749 5636.38 7303.67 15848.6 45906.1 12904.8 4532.82 11235.9 33001.3 9079.5 3997.17 6028.12 8174.45 2436.73 5082.33 3358.21 2787.3 8371.98
internal_count=622111 445318 176793 143571 57348 86223 104891 31346 37227 71902 301747 80421 25045 51492 221326 58390 22524 29418 39478 11741 35866 18114 14696 55376
is_linear=0
shrinkage=0.0671755


Tree=14
num_leaves=25
num_cat=0
split_feature=2 1 1 0 3 3 0 3 3 2 0 3 2 5 0 1 2 2 6 1 9 5 5 6
split_gain=3776.37 12758.3 11152.3 8174.18 5482.81 3509.93 3474.02 3910.85 2879.15 1638.06 1202.15 1181.61 2828.42 1480.21 1243.47 2118.53 1547.44 1140.08 1130.37 892.983 754.016 698.219 630.901 535.782
threshold=-1.0000000180025095e-35 1.0000000180025095e-35 -1.0000000180025095e-35 1.0000000180025095e-35 1.0000000180025095e-35 -1.0000000180025095e-35 -1.0000000180025095e-35 -1.0000000180025095e-35 -1.0000000180025095e-35 1.0000000180025095e-35 -1.0000000180025095e-35 1.0000000180025095e-35 1.0000000180025095e-35 -1.0000000180025095e-35 -1.0000000180025095e-35 -1.0000000180025095e-35 1.0000000180025095e-35 1.0000000180025095e-35 -1.0000000180025095e-35 1.0000000180025095e-35 1.0000000180025095e-35 -1.0000000180025095e-35 -1.0000000180025095e-35 -1.0000000180025095e-35
decision_type=2 2 2 2 2 2 2 2 2 2 2 2 2 2 2 2 2 2 2 2 2 2 2 2
left_child=2 11 6 4 -3 -5 -1 -8 -4 -6 19 14 -13 -14 15 16 -2 22 -15 -10 -20 -11 -7 -24
right_child=1 3 8 5 9 17 7 -9 10 21 -12 12 13 18 -16 -17 -18 -19 20 -21 -22 -23 23 -25
leaf_value=0.086442000282135778 0.03678881257806902 -0.044136588438248324 0.018511693075676388 -0.061785425066096251 -0.0030454963343149472 -0.022433219491509965 0.072342766200414257 -0.027646019770168773 0.010317316858849845 -0.028523176290645207 -0.056543475583679441 -0.04211814969209824 -0.058633085055624444 -0.041129572374524234 -0.04661153988540942 -0.046683185963659335 -0.062959637596536597 0.089549864347600178 0.027522769408974114 -0.065633960822197232 0.086997911376502868 0.07977717772881239 -0.0099336316527391267 0.068328569705180281
leaf_weight=8888.1194211095572 3496.2019185870886 8010.0006052330136 5669.784763276577 897.07170645147562 2226.9659987390041 544.32586346566677 3600.9616378992796 3462.4189871102571 2715.7408615499735 293.21930486708879 7176.818257689476 7167.0728600397706 891.39896459132433 738.43320922553539 22384.742272548378 5194.836689516902 878.0363888964057 8357.434718772769 2658.1960233822465 940.40308564901352 1507.4679607152939 3198.8556351363659 467.36898209154606 2538.6405275762081
leaf_count=36846 17903 54839 31346 5669 13822 3302 15426 19630 15150 1628 52611 48840 5854 4550 161258 36291 5665 35465 14052 5784 7334 13729 2608 12509
internal_value=0 -0.00919039 0.0184426 0.0277419 -0.00826606 0.0663488 0.0584955 0.0233289 -0.0202724 0.0419734 -0.0405714 -0.0310078 -0.0139011 0.0209937 -0.0379474 -0.0176792 0.0167657 0.0760021 0.0354678 -0.00921835 0.0490465 0.0706829 0.0441099 0.0561601
internal_weight=0 71450.3 32454.2 26533.9 13729 12804.8 15951.5 7063.38 16502.7 5719.04 10833 44916.4 12962.6 5795.5 31953.8 9569.07 4374.24 11907.8 4904.1 3656.14 4165.66 3492.07 3550.34 3006.01
internal_count=622111 445318 176793 143571 84018 59553 71902 35056 104891 29179 73545 301747 80630 31790 221117 59859 23568 53884 25936 20934 21386 15357 18419 15117
is_linear=0
shrinkage=0.0671755


Tree=15
num_leaves=25
num_cat=0
split_feature=22 23 23 22 21 21 21 20 21 20 21 20 20 21 22 20 22 17 15 14 12 15 23 23
split_gain=3567.68 12407.7 11707.5 8603.88 4627.62 3054.17 2442.35 2328.1 2031.35 1759.81 1620.2 3541 1236.18 1209.56 1076.35 862.976 860.843 764.758 721.595 2024.5 663.886 658.209 650.016 648.291
threshold=-1.0000000180025095e-35 1.0000000180025095e-35 -1.0000000180025095e-35 1.0000000180025095e-35 -1.0000000180025095e-35 -1.0000000180025095e-35 -1.0000000180025095e-35 -1.0000000180025095e-35 1.0000000180025095e-35 -1.0000000180025095e-35 1.0000000180025095e-35 1.0000000180025095e-35 -1.0000000180025095e-35 1.0000000180025095e-35 1.0000000180025095e-35 -1.0000000180025095e-35 1.0000000180025095e-35 1.0000000180025095e-35 1.0000000180025095e-35 1.0000000180025095e-35 -1.0000000180025095e-35 -1.0000000180025095e-35 -1.0000000180025095e-35 1.0000000180025095e-35
decision_type=2 2 2 2 2 2 2 2 2 2 2 2 2 2 2 2 2 2 2 2 2 2 2 2
left_child=2 10 6 8 -5 9 -1 -6 -3 -4 18 15 -10 -9 -13 -12 -17 -8 -2 -20 -21 -19 -18 -11
right_child=1 3 5 4 7 -7 17 13 12 23 11 14 -14 -15 -16 16 22 21 19 20 -22 -23 -24 -25
leaf_value=0.092124967387460219 -0.043417131738101002 -0.036509774806373227 0.066825303547064868 -0.066192690804732932 -0.014738740013486339 -0.040937274472606942 0.021441487520987297 0.058251767801236948 -0.066912139192220485 0.0074763923999567085 -0.069329178969833136 0.0036731487166643709 0.040875744867454315 0.10185102378238654 0.068305461915422153 -0.043776174245886611 -0.050693035620731283 -0.025788850228915181 -0.042670516104969469 -0.043989657539459229 0.042047316016628138 0.078984714202503511 0.02563860945218947 -0.057803305156577868
leaf_weight=6785.1033008247614 24179.247103534639 7186.9884602725506 2200.1165233403444 1138.6637407541275 1185.7915418818593 10850.98440066725 5029.5730482935905 4867.3049194812775 565.77489261329174 2617.4201044812799 2402.4206844493747 2219.276679970324 3170.6341641396284 7003.6038728356361 2442.3620655536652 3524.8196742087603 669.9898608699441 307.2338789626956 6071.9241716936231 492.51708403974771 2269.0947645753622 2265.3268152549863 2024.5976369380951 930.50802954286337
leaf_count=30234 165286 49483 11050 7781 6881 73891 26332 23660 3902 15108 17075 13965 17726 30726 11986 24333 4221 1691 41518 3400 13733 10928 11186 6015
internal_value=0 -0.00881794 0.0184767 0.0291954 0.0636831 -0.0199652 0.0628284 0.0750097 -0.0156226 0.0196251 -0.0294427 -0.00963147 0.0245534 0.0839748 0.0375364 -0.0351343 -0.021925 0.03668 -0.0374141 -0.0209825 0.0267023 0.0664712 0.00665837 -0.00964444
internal_weight=0 71415 30986.3 25118.8 14195.4 16599 14387.2 13056.7 10923.4 5748.04 46296.2 13283.5 3736.41 11870.9 4661.64 8621.83 6219.41 7602.13 33012.8 8833.54 2761.61 2572.56 2694.59 3547.93
internal_count=622111 446862 175249 140159 69048 106064 69185 61267 71111 32173 306703 82766 21628 54386 25951 56815 39740 38951 223937 58651 17133 12619 15407 21123
is_linear=0
shrinkage=0.0671755


Tree=16
num_leaves=25
num_cat=0
split_feature=2 1 1 0 3 3 0 3 3 2 0 3 2 5 0 1 2 2 6 1 7 5 5 2
split_gain=3208.27 10922.7 9376.06 6880.33 4708.92 2964.98 2921.86 3242.32 2519.22 1355.7 1110.59 1053.46 2459.58 1267.86 1132.65 1864.36 1331.61 1014.8 943.268 795.48 779.066 576.626 516.96 502.383
threshold=-1.0000000180025095e-35 1.0000000180025095e-35 -1.0000000180025095e-35 1.0000000180025095e-35 1.0000000180025095e-35 -1.0000000180025095e-35 -1.0000000180025095e-35 -1.0000000180025095e-35 -1.0000000180025095e-35 1.0000000180025095e-35 -1.0000000180025095e-35 1.0000000180025095e-35 1.0000000180025095e-35 -1.0000000180025095e-35 -1.0000000180025095e-35 -1.0000000180025095e-35 1.0000000180025095e-35 1.0000000180025095e-35 -1.0000000180025095e-35 1.0000000180025095e-35 -1.0000000180025095e-35 -1.0000000180025095e-35 -1.0000000180025095e-35 1.0000000180025095e-35
decision_type=2 2 2 2 2 2 2 2 2 2 2 2 2 2 2 2 2 2 2 2 2 2 2 2
left_child=2 11 6 4 23 -5 -1 -8 -4 -6 19 14 -13 -14 15 16 -2 22 -15 -10 -20 -11 -7 -3
right_child=1 3 8 5 9 17 7 -9 10 21 -12 12 13 18 -16 -17 -18 -19 20 -21 -22 -23 -24 -25
leaf_value=0.079722489755623641 0.033579472439271764 -0.056442646987700948 0.017022443350568336 -0.059531146864120428 -0.0025876433098917045 -0.020773737832511227 0.065680972932662035 -0.025799821014000031 0.0097084914747186234 -0.026569331331433705 -0.054553819526924431 -0.04003263084498223 -0.056433385784862157 -0.038942441525447104 -0.044482446177117774 -0.04457143944715225 -0.060801064189569182 0.083244431814959607 -0.023501087296044002 -0.063432604636696283 0.056863956744997328 0.072966493420001166 0.051013227998451351 -0.021608243045766713
leaf_weight=8772.2298673391342 3534.7545870542526 4504.0949151441455 5673.5234646201134 852.75172456353903 2202.55303388834 531.73555647581816 3622.5492505431175 3379.0641719996929 2706.5974317193031 286.16270337998867 6815.2735142409801 6895.7462389022112 848.33565687388182 713.32862731814384 21431.6087365821 4975.5366839244962 833.64345487207174 8176.0394304096699 642.36447092890739 892.15346622467041 3565.2265528813004 3190.0065413713455 3042.9614529013634 3192.8803157359362
leaf_count=36846 17903 34985 31346 5669 13822 3302 15426 19630 15150 1628 52611 48840 5854 4550 161258 36291 5665 35465 3620 5784 17766 13729 15117 19854
internal_value=0 -0.00865606 0.0170916 0.0258003 -0.00775721 0.0614138 0.053893 0.0215311 -0.0189922 0.0386458 -0.038613 -0.0292623 -0.0129552 0.0194092 -0.0359731 -0.0164556 0.0155677 0.070191 0.0324845 -0.00842376 0.0445944 0.064772 0.0403345 -0.0419929
internal_weight=0 69419.7 31861.4 25979.2 13375.7 12603.5 15773.8 7001.61 16087.5 5678.72 10414 43440.5 12665 5769.26 30775.5 9343.93 4368.4 11750.7 4920.92 3598.75 4207.59 3476.17 3574.7 7696.98
internal_count=622111 445318 176793 143571 84018 59553 71902 35056 104891 29179 73545 301747 80630 31790 221117 59859 23568 53884 25936 20934 21386 15357 18419 54839
is_linear=0
shrinkage=0.0671755


Tree=17
num_leaves=25
num_cat=0
split_feature=22 22 24 24 20 19 20 20 15 14 19 19 18 15 14 2 0 0 2 15 14 18 20 19
split_gain=3046.48 7537.94 7543.36 7466.71 3091.07 2063.46 1914.68 1682.59 1059.49 1202.13 1019.45 863.096 1435.29 809.096 905.24 737.385 1915.81 1753.77 1552.79 708.588 1018.97 666.49 642.726 586.048
threshold=-1.0000000180025095e-35 1.0000000180025095e-35 1.0000000180025095e-35 -1.0000000180025095e-35 1.0000000180025095e-35 -1.0000000180025095e-35 -1.0000000180025095e-35 -1.0000000180025095e-35 1.0000000180025095e-35 -1.0000000180025095e-35 -1.0000000180025095e-35 -1.0000000180025095e-35 -1.0000000180025095e-35 1.0000000180025095e-35 1.0000000180025095e-35 -1.0000000180025095e-35 -1.0000000180025095e-35 1.0000000180025095e-35 1.0000000180025095e-35 1.0000000180025095e-35 1.0000000180025095e-35 -1.0000000180025095e-35 -1.0000000180025095e-35 1.0000000180025095e-35
decision_type=2 2 2 2 2 2 2 2 2 2 2 2 2 2 2 2 2 2 2 2 2 2 2 2
left_child=3 15 4 8 22 -6 13 10 -1 -10 -4 12 -9 -5 -15 16 -2 -17 -19 -8 -21 -7 -3 -23
right_child=1 2 7 6 5 21 19 11 9 -11 -12 -13 -14 14 -16 17 -18 18 -20 20 -22 23 -24 -25
leaf_value=0.044036268572952009 0.019528787844128686 -0.055299842584574009 0.062292158401915342 0.004797726940193898 -0.063935554795145469 -0.0070902124035326234 -0.033563490761214558 0.087878401914407558 -0.032035697505553226 0.096899658675301106 -0.058073966429406494 0.076847485950350097 -0.043054240777800887 0.014868357588794566 0.10550041881277195 -0.045541462728910222 -0.035951047594015767 -0.037228993978986456 0.018504240727339975 -0.024346517419763101 0.049742978573779038 0.033511166392490153 -0.020298591536442069 0.08223610510412796
leaf_weight=7416.821686245501 4707.0125663653016 3230.4946259334683 518.71289007365704 3851.658709987998 942.65197370946407 965.29375078529119 9182.5338608771563 749.27470986545086 356.11052298545837 3895.2812619656324 818.52207464724779 8732.6547248736024 761.96693027764559 1057.4739118218422 938.85198305547237 18541.370885059237 6964.1871457621455 4522.9141994044185 4500.3823702558875 2425.6044787615538 1279.4911878779531 2603.2682203128934 8862.6377019137144 1947.307997263968
leaf_count=40255 23467 23458 3127 22581 5949 5587 58426 3776 2160 19081 5831 44051 4745 6060 4589 142863 48992 32651 23678 15045 7052 14137 54664 9886
internal_value=0 -0.00832276 0.0169456 0.017179 -0.00961006 0.027911 -0.00909216 0.0594848 0.0593625 0.0860991 -0.0113826 0.0687359 0.021862 0.022787 0.0574935 -0.0277287 -0.0135758 -0.0337211 -0.00943185 -0.023558 0.00123891 0.043608 -0.0296489 0.0543626
internal_weight=0 69368.7 30132.8 30403.8 18551.7 6458.52 18735.6 11581.1 11668.2 4251.39 1337.23 10243.9 1511.24 5847.98 1996.33 39235.9 11671.2 27564.7 9023.3 12887.6 3705.1 5515.87 12093.1 4550.58
internal_count=622111 446862 175211 175249 113681 35559 113753 61530 61496 21241 8958 52572 8521 33230 10649 271651 72459 199192 56329 80523 22097 29610 78122 24023
is_linear=0
shrinkage=0.0671755


Tree=18
num_leaves=25
num_cat=0
split_feature=15 16 17 14 16 17 15 14 14 16 18 18 17 15 18 17 15 12 17 22 21 21 22 24
split_gain=2713.28 9839.96 4701.91 3883.35 3621.9 7682.21 4149.23 3380.31 2985.63 2151.92 2056.19 1824.15 4297.93 1808.02 2017.86 1665.35 1375.83 1132.45 894.591 887.991 2081.72 1373.03 1343.63 924.277
threshold=1.0000000180025095e-35 1.0000000180025095e-35 -1.0000000180025095e-35 -1.0000000180025095e-35 -1.0000000180025095e-35 -1.0000000180025095e-35 -1.0000000180025095e-35 -1.0000000180025095e-35 1.0000000180025095e-35 -1.0000000180025095e-35 -1.0000000180025095e-35 1.0000000180025095e-35 1.0000000180025095e-35 -1.0000000180025095e-35 -1.0000000180025095e-35 -1.0000000180025095e-35 -1.0000000180025095e-35 -1.0000000180025095e-35 1.0000000180025095e-35 1.0000000180025095e-35 1.0000000180025095e-35 -1.0000000180025095e-35 -1.0000000180025095e-35 1.0000000180025095e-35
decision_type=2 2 2 2 2 2 2 2 2 2 2 2 2 2 2 2 2 2 2 2 2 2 2 2
left_child=4 8 -3 -4 5 13 7 -7 -2 -10 -5 19 15 -1 -15 -13 -14 -11 -12 21 23 22 -6 -21
right_child=1 2 3 10 11 6 -8 -9 9 17 18 12 16 14 -16 -17 -18 -19 -20 20 -22 -23 -24 -25
leaf_value=0.10160978397972474 -0.034229438012425686 -0.062295301438531257 -0.051502947146133765 -0.0093350162093177921 0.020184598848443234 0.086780973532814665 -0.049444067162098405 -0.018727101061534898 -0.054664922676420896 -0.035324190289179262 0.080615770398629119 -0.070746034551178491 -0.017054326132185934 0.09408921985312764 -0.0045727231332820797 -0.0063951258560273521 0.071883619139076302 0.061354851205838154 0.12543456972658751 -0.050208345277566242 0.028164070884177345 -0.042233500166387633 -0.035891295097190107 0.0034420174044204332
leaf_weight=3869.589078605175 11512.089420594275 1138.2545664384961 894.0765435397625 772.95828791707754 3793.5880727544427 2453.2979800924659 7186.7023099660873 3103.8799924254417 1186.151193022728 639.78098297864199 3646.7609625756741 2486.8882734999061 981.27016221731901 1604.7190694063902 2242.7427715361118 6714.6396348997951 3921.3502334877849 3757.7572880163789 4478.3612233698368 4401.992300465703 4166.8111902996898 17845.229466356337 3921.1525936722755 2160.0057460740209
leaf_count=20001 76727 7842 6106 4965 20010 13123 49098 20302 7978 4278 19365 17540 6447 8599 14331 42765 21790 20776 21517 30581 21829 125175 27954 13012
internal_value=0 0.0171488 0.0669284 0.0819498 -0.00754277 0.0162924 -0.0157382 0.027851 -0.0146784 0.0256303 0.0953594 -0.0172206 0.00328007 0.0691876 0.0365779 -0.0237875 0.0540822 0.0472889 0.105319 -0.0251884 -0.00896887 -0.0319965 -0.00831683 -0.0325482
internal_weight=0 28026.2 10930.4 9792.16 70853.9 20460.9 12743.9 5557.18 17095.8 5583.69 8898.08 50392.9 14104.1 7717.05 3847.46 9201.53 4902.62 4397.54 8125.12 36288.8 10728.8 25560 7714.74 6562
internal_count=622111 169554 59795 51953 452557 125454 82523 33425 109759 33032 45847 327103 88542 42931 22930 60305 28237 25054 40882 238561 65422 173139 47964 43593
is_linear=0
shrinkage=0.0671755


Tree=19
num_leaves=25
num_cat=0
split_feature=19 18 17 17 18 15 17 14 17 15 18 13 19 0 0 3 4 12 23 14 24 18 15 15
split_gain=2407.09 5442.57 5810.02 5552.22 4372.48 3594.66 2548.39 2138.3 2001.69 4847.06 1934.19 1069.33 979.178 936.116 2362.9 782.584 950.823 713.233 663.763 648.813 620.527 499.634 453.545 450.308
threshold=-1.0000000180025095e-35 -1.0000000180025095e-35 -1.0000000180025095e-35 1.0000000180025095e-35 -1.0000000180025095e-35 1.0000000180025095e-35 -1.0000000180025095e-35 -1.0000000180025095e-35 -1.0000000180025095e-35 -1.0000000180025095e-35 1.0000000180025095e-35 -1.0000000180025095e-35 1.0000000180025095e-35 -1.0000000180025095e-35 1.0000000180025095e-35 1.0000000180025095e-35 -1.0000000180025095e-35 -1.0000000180025095e-35 1.0000000180025095e-35 -1.0000000180025095e-35 1.0000000180025095e-35 1.0000000180025095e-35 -1.0000000180025095e-35 -1.0000000180025095e-35
decision_type=2 2 2 2 2 2 2 2 2 2 2 2 2 2 2 2 2 2 2 2 2 2 2 2
left_child=4 2 18 8 6 10 -1 -7 9 19 -5 17 23 -10 -15 -16 -17 -9 22 -3 -20 -6 -2 -12
right_child=1 3 -4 5 21 7 -8 11 13 -11 12 -13 -14 14 15 16 -18 -19 20 -21 -22 -23 -24 -25
leaf_value=0.078352321879698997 0.043806575123632945 0.067408008065409836 -0.061253157010299188 -0.0025910392417292723 -0.032856735551215328 -0.033944359125653543 -0.0076446260109039807 0.085856345693937672 0.026895240456907082 -0.055079062169341761 -0.021791399670588667 0.10065106016710218 0.08502785319012722 -0.019847410381137989 0.010861669526808757 -0.056628444711043745 0.061956545510357279 -0.048399262838359484 0.01976964378359039 0.013926638376607231 0.094708283030568483 -0.059771626704717425 -0.0090290187243987942 0.040890362953936117
leaf_weight=2487.5973046794534 1058.4993271827698 1581.0417458415031 9950.0870935022831 6828.3195678889751 10031.300842568278 673.88646616786718 4147.4108588173985 333.3782564997673 9575.972742035985 7695.2296817749739 682.57413156330585 6083.5707736164331 2264.8421020284295 10902.591211296618 5775.962991707027 336.70471563190222 3248.2484467402101 384.41731371730566 1034.558040484786 2903.4992926493287 962.63440044224262 4512.8390705659986 2384.9017486423254 2133.9579178243876
leaf_count=13903 6241 8704 70332 43633 68322 4606 27351 1821 53297 53850 4456 30769 12241 78251 34997 2222 16311 2562 6127 17819 4791 31663 15615 12227
internal_value=0 0.00498692 -0.0307335 0.0139401 -0.0205926 0.0436798 0.0245974 0.0801926 0.000220081 -0.0227287 0.0207619 0.0915017 0.0521435 0.0095873 0.00140795 0.026164 0.050818 0.0139548 0.0250826 0.0327824 0.0558913 -0.0412083 0.00721253 0.0256992
internal_weight=0 76794.9 15390.7 61404.2 21179.1 19384.9 6635.01 7475.25 42019.3 12179.8 11909.7 6801.37 5081.37 29839.5 20263.5 9360.92 3584.95 717.796 5440.59 4484.54 1997.19 14544.1 3443.4 2816.53
internal_count=622111 480872 103106 377766 141239 112315 41254 39758 265451 80373 72557 35152 28924 185078 131781 53530 18533 4383 32774 26523 10918 99985 21856 16683
is_linear=0
shrinkage=0.0671755


Tree=20
num_leaves=25
num_cat=0
split_feature=2 1 1 3 4 2 3 4 3 3 5 4 3 5 6 3 1 2 3 5 4 6 7 4
split_gain=2490.28 8733.56 7400.9 5133.35 2798.39 2418.45 2124.38 2358.83 1945.53 1729.5 1285.59 1137.56 2753.39 1405.36 1011.29 979.613 1242.37 890.449 739.495 737.817 917.548 704.847 913.691 703.832
threshold=-1.0000000180025095e-35 1.0000000180025095e-35 -1.0000000180025095e-35 1.0000000180025095e-35 -1.0000000180025095e-35 1.0000000180025095e-35 -1.0000000180025095e-35 -1.0000000180025095e-35 -1.0000000180025095e-35 -1.0000000180025095e-35 -1.0000000180025095e-35 1.0000000180025095e-35 1.0000000180025095e-35 -1.0000000180025095e-35 -1.0000000180025095e-35 -1.0000000180025095e-35 -1.0000000180025095e-35 1.0000000180025095e-35 1.0000000180025095e-35 -1.0000000180025095e-35 -1.0000000180025095e-35 -1.0000000180025095e-35 -1.0000000180025095e-35 -1.0000000180025095e-35
decision_type=2 2 2 2 2 2 2 2 2 2 2 2 2 2 2 2 2 2 2 2 2 2 2 2
left_child=2 11 9 5 -5 -3 7 -4 -7 -1 -6 15 -13 -14 -15 16 17 -2 -11 20 -18 22 -12 -10
right_child=1 3 6 4 10 8 -8 -9 23 18 21 12 13 14 -16 -17 19 -19 -20 -21 -22 -23 -24 -25
leaf_value=0.071626023462009566 0.030499938725088185 -0.034105241311143814 0.06704246890609683 -0.059770659776532335 -0.0096627179849882658 -0.058117421107462021 -0.036236065773630817 -0.02115487933902346 -0.028737769453462736 0.038638398594869984 0.079782992501892913 -0.034092517732952542 -0.066459114810542744 -0.04105517210908128 0.061016013245127614 -0.041502143429437005 0.07077145473940652 -0.04997732873199616 -0.0080436467276479382 -0.055603416048487127 -0.044974662687844141 0.079330364137951415 -0.045819287712766582 0.046656376585017728
leaf_weight=7403.5257051736116 3020.2283188253641 6511.2216352894902 2338.098125398159 865.437833763659 929.12301826477051 1121.0754988193512 9899.1302952617407 3299.1961074247956 626.1709518134594 5908.1644443720579 558.85513546317816 7446.9582404345274 559.18432480841875 504.53831570595503 3320.2999618202448 21264.552999056876 545.22723385691643 780.76785299926996 2066.9502746537328 3177.8448054417968 713.38789568096399 8677.8484937474132 490.87355787307024 5185.9320690557361
leaf_count=32424 16873 48996 11321 5856 5441 7809 73545 20025 4264 28861 2639 55376 4323 3393 17329 162936 3929 5651 10617 26071 5866 40716 2696 25154
internal_value=0 -0.00787733 0.0152093 0.0234931 0.0563961 -0.0047055 -0.0174909 0.0154254 0.0229048 0.0482451 0.0658304 -0.0268262 -0.00922788 0.0330083 0.0475511 -0.0338834 -0.0142158 0.0139683 0.0265394 -0.0383631 0.00516568 0.0730412 0.0210481 0.0385334
internal_weight=0 66299.5 30915.1 24966.5 11522.1 13444.4 15536.4 5637.29 6933.18 15378.6 10656.7 41333 11831 4384.02 3824.84 29502 8237.46 3801 7975.11 4436.46 1258.62 9727.58 1049.73 5812.1
internal_count=622111 445318 176793 143571 57348 86223 104891 31346 37227 71902 51492 301747 80421 25045 20722 221326 58390 22524 39478 35866 9795 46051 5335 29418
is_linear=0
shrinkage=0.0671755


Tree=21
num_leaves=25
num_cat=0
split_feature=22 23 23 22 23 15 14 19 18 17 18 15 14 17 18 19 18 10 9 8 11 7 9 8
split_gain=2365.56 9346.27 8599.33 5769.91 1115.33 856.236 1033.49 781.06 1610.85 927.826 814.839 737.949 1146.58 615.649 632.11 530.373 1754.82 444.544 1780.32 1185.36 631.204 596.464 507.541 1901.36
threshold=-1.0000000180025095e-35 1.0000000180025095e-35 -1.0000000180025095e-35 1.0000000180025095e-35 1.0000000180025095e-35 1.0000000180025095e-35 1.0000000180025095e-35 1.0000000180025095e-35 1.0000000180025095e-35 -1.0000000180025095e-35 -1.0000000180025095e-35 1.0000000180025095e-35 -1.0000000180025095e-35 -1.0000000180025095e-35 -1.0000000180025095e-35 -1.0000000180025095e-35 -1.0000000180025095e-35 1.0000000180025095e-35 1.0000000180025095e-35 1.0000000180025095e-35 1.0000000180025095e-35 -1.0000000180025095e-35 -1.0000000180025095e-35 -1.0000000180025095e-35
decision_type=2 2 2 2 2 2 2 2 2 2 2 2 2 2 2 2 2 2 2 2 2 2 2 2
left_child=2 7 11 -3 5 -4 -7 17 10 -10 -9 -1 -13 -14 -15 16 -5 22 -19 20 -20 -21 23 -2
right_child=1 3 4 15 -6 6 -8 8 9 -11 -12 12 13 14 -16 -17 -18 18 19 21 -22 -23 -24 -25
leaf_value=0.041972462760178096 0.03498114537739367 -0.012105130399112849 -0.019525949535021347 0.083435504832750348 -0.046613730067200113 -0.0086087905554532457 0.068144056309021081 -0.062446088416390037 -0.051639795056782463 0.041365245373145558 -0.014774395911369578 -0.035387722181075935 0.0017498968271060537 -0.011592444596123094 0.097007826817240836 0.060841077069839121 -0.035210128169383709 -0.039902690849745154 -0.038320544211261492 -0.065576619397957142 0.050108858193575176 0.10225672135538065 -0.042711419737601661 -0.045787751672969168
leaf_weight=8755.1645961254835 1931.02670173347 10122.040759555995 7732.645836263895 1144.7361409515142 4600.7404209151864 2037.8918454423547 1294.487228050828 2246.3734096065164 578.11937712132931 2973.0061599463224 5784.2298772931099 398.01878795027733 383.44366078078747 257.0877034291625 4073.8092925995588 11313.27656441927 1105.9972351938486 5605.9486470073462 1075.5848498791456 106.88989440351725 550.7162801027298 898.50767695903778 16814.689728371799 4123.9560397863388
leaf_count=44383 12590 71111 52706 5625 32784 13512 7062 17389 4410 18459 40289 2218 2036 1383 19165 56846 6577 41376 7899 822 3513 4975 124268 30713
internal_value=0 -0.00756555 0.0152877 0.0262751 -0.0188167 -0.0072587 0.0212065 -0.0263421 -0.0114503 0.0262234 -0.0281098 0.0538145 0.074094 0.0833377 0.0905608 0.0549162 0.0251335 -0.0318865 -0.0185057 0.0270727 -0.00837432 0.0844103 -0.0367061 -0.020029
internal_weight=0 66375.1 29533.3 23686.1 15665.8 11065 3332.38 42689 11581.7 3551.13 8030.6 13867.5 5112.36 4714.34 4330.9 13564 2250.73 31107.3 8237.65 2631.7 1626.3 1005.4 22869.7 6054.98
internal_count=622111 446862 175249 140159 106064 73280 20574 306703 80547 22869 57678 69185 24802 22584 20548 69048 12202 226156 58585 17209 11412 5797 167571 43303
is_linear=0
shrinkage=0.0671755


Tree=22
num_leaves=25
num_cat=0
split_feature=2 1 1 2 8 7 8 7 6 7 6 8 7 6 1 8 7 6 6 7 6 7 16 17
split_gain=2138.2 7524.15 6288.47 4339.12 682.381 1116.22 681.694 2354.94 1379.66 875.352 709.405 670.009 1293.63 944.45 616.68 603.299 1272.91 517.315 484.851 460.931 1147.39 407.491 403.272 1849.73
threshold=-1.0000000180025095e-35 1.0000000180025095e-35 -1.0000000180025095e-35 1.0000000180025095e-35 1.0000000180025095e-35 1.0000000180025095e-35 1.0000000180025095e-35 1.0000000180025095e-35 -1.0000000180025095e-35 -1.0000000180025095e-35 1.0000000180025095e-35 1.0000000180025095e-35 -1.0000000180025095e-35 -1.0000000180025095e-35 1.0000000180025095e-35 -1.0000000180025095e-35 -1.0000000180025095e-35 -1.0000000180025095e-35 -1.0000000180025095e-35 1.0000000180025095e-35 -1.0000000180025095e-35 -1.0000000180025095e-35 1.0000000180025095e-35 1.0000000180025095e-35
decision_type=2 2 2 2 2 2 2 2 2 2 2 2 2 2 2 2 2 2 2 2 2 2 2 2
left_child=2 6 15 4 -3 21 22 9 -9 -8 -10 -5 -13 -14 -4 16 -1 -7 -11 -17 -21 -6 -2 -24
right_child=1 3 14 11 5 17 7 8 10 18 -12 12 13 -15 -16 19 -18 -19 -20 20 -22 -23 23 -25
leaf_value=0.097156843726712669 -0.035409512643812702 -0.02277944042229859 -0.0075450711310371633 0.034610856627374578 -0.068234651037318003 -0.064243634910627942 -0.068910759634436103 -0.065853464294791955 0.024853741476658909 -0.057796490725132932 0.092055531362529155 -0.05758221085688605 -0.053871824324431321 0.080361993120495689 -0.037082030472466561 0.025499247148743888 0.028717874420641918 0.084258454705276833 -0.0073372109682971788 -0.065960226109964645 0.068251461942265904 0.0025076529388683186 -0.040176726918968841 0.029316821297386251
leaf_weight=2536.6030809432268 21452.102937959135 7178.9414222538471 10630.537979751825 8915.6998776867986 498.35777030140162 118.35179711133242 2103.2873522788286 518.32920885831118 1686.562892369926 1080.3933112546802 1222.8801433220506 363.74218375235796 248.95008479058743 4725.911762624979 4557.1415709629655 6910.7235827967525 2374.3555419147015 999.806575730443 4199.1838471069932 317.0008939653635 3079.1675371900201 1398.2326128482819 5331.0418817326427 2557.5346722528338
leaf_count=11510 165182 51231 72054 45688 3827 954 16945 4320 11222 8793 7244 2069 1522 23321 32837 33146 11318 5515 30020 1623 14305 9444 41083 16938
internal_value=0 -0.00743112 0.014172 0.021949 -0.0115164 0.0153035 -0.0253206 -0.0109004 0.0351123 -0.0322637 0.0531009 0.0458812 0.0647025 0.0736441 -0.0164079 0.0446915 0.0640686 0.0685374 -0.0176636 0.0354584 0.0557231 -0.0160812 -0.0306337 -0.0176462
internal_weight=0 64599.3 30405.5 24448 10193.7 3014.75 40151.3 10810.6 3427.77 7382.86 2909.44 14254.3 5338.6 4974.86 15187.7 15217.9 4910.96 1118.16 5279.58 10306.9 3396.17 1896.59 29340.7 7888.58
internal_count=622111 445318 176793 143571 70971 19740 301747 78544 22786 55758 18466 72600 26912 24843 104891 71902 22828 6469 38813 49074 15928 13271 223203 58021
is_linear=0
shrinkage=0.0671755


Tree=23
num_leaves=25
num_cat=0
split_feature=9 8 7 10 8 7 9 10 10 8 6 9 6 6 7 9 7 7 6 10 1 0 0 3
split_gain=2086.15 7874.14 3893.07 3339.24 3330.8 6581.75 3858.72 3030.28 3000.73 1882.77 1827.03 1536.59 1911.76 1269.27 3302.84 1471.88 1370.31 951.723 714.301 695.692 636.482 1633.86 1065.94 989.886
threshold=1.0000000180025095e-35 1.0000000180025095e-35 -1.0000000180025095e-35 -1.0000000180025095e-35 -1.0000000180025095e-35 -1.0000000180025095e-35 -1.0000000180025095e-35 1.0000000180025095e-35 -1.0000000180025095e-35 -1.0000000180025095e-35 -1.0000000180025095e-35 -1.0000000180025095e-35 -1.0000000180025095e-35 1.0000000180025095e-35 1.0000000180025095e-35 -1.0000000180025095e-35 -1.0000000180025095e-35 -1.0000000180025095e-35 -1.0000000180025095e-35 -1.0000000180025095e-35 -1.0000000180025095e-35 -1.0000000180025095e-35 1.0000000180025095e-35 -1.0000000180025095e-35
decision_type=2 2 2 2 2 2 2 2 2 2 2 2 2 2 2 2 2 2 2 2 2 2 2 2
left_child=4 7 -3 -4 5 11 8 19 -7 -9 -5 -1 -13 20 16 -16 -15 -11 -19 -2 21 -6 -22 -23
right_child=1 2 3 10 13 6 -8 9 -10 17 -12 12 -14 14 15 -17 -18 18 -20 -21 22 23 -24 -25
leaf_value=0.096226077054248627 -0.06064469370139406 -0.063547892922535321 -0.05279446521187707 -0.022225955031220244 0.021532334224127283 0.085412896605195479 -0.047635891967308185 -0.051295997688294945 -0.016149483788458093 -0.031388532914188624 0.095840612534540265 0.09205958264989407 -0.0062117361224018888 -0.06808277312683142 -0.030011616460429078 0.064132587910183586 -0.0076146180448822135 -0.019221179987576675 0.071587713201482037 -0.023315165713863415 -0.039249114850950367 0.0034430398927447503 -0.0087361392254910134 -0.051994948165101099
leaf_weight=3788.5699782893062 3191.8214256688952 1022.7559786066413 846.9110461845994 639.10616387426853 4442.94662643224 2354.7138185352087 6777.670282445848 1088.0142881199718 2966.5548783242702 590.36408961564302 7925.5790691822767 1544.1226274818182 2119.3518677800894 2295.1756508797407 929.58904761821032 3865.0557249337435 6426.3948529809713 445.03872379660606 3210.0472069755197 7659.0255627408624 15963.381950236857 2291.2207270413637 7638.7160027325153 3974.5970104932785
leaf_count=20112 23741 7725 6097 4696 22550 12944 49089 7863 20141 4193 41472 8593 14243 17199 6323 21973 42836 3210 18055 52833 123867 12958 49184 30214
internal_value=0 0.0154189 0.0609212 0.0744476 -0.00679305 0.0165672 -0.0140214 -0.0139173 0.0287929 0.0275427 0.0870301 0.0662301 0.0352089 -0.0163424 0.00109317 0.0458795 -0.0235278 0.0477479 0.0605305 -0.0342961 -0.0232109 -0.00962774 -0.0293738 -0.0317228
internal_weight=0 26618.7 10434.4 9411.6 67378.1 19551 12098.9 16184.3 5321.27 5333.46 8564.69 7452.04 3663.47 47827.1 13516.2 4794.64 8721.57 4245.45 3655.09 10850.8 34310.9 10708.8 23602.1 6265.82
internal_count=622111 169885 59990 52265 452226 125122 82174 109895 33085 33321 46168 42948 22836 327104 88331 28296 60035 25458 21265 76574 238773 65722 173051 43172
is_linear=0
shrinkage=0.0671755


Tree=24
num_leaves=25
num_cat=0
split_feature=0 2 1 1 3 1 3 2 1 3 0 5 2 2 1 3 0 2 5 3 2 0 1 2
split_gain=1861.84 6067.42 4997.81 4019.44 2287.2 2298.87 2056.61 1858 1837.28 1670.51 1353.65 1198.26 1127.2 1027.19 1116.27 958.656 829.257 802.97 709.415 705.199 667.06 663.438 604.184 568.051
threshold=-1.0000000180025095e-35 1.0000000180025095e-35 -1.0000000180025095e-35 1.0000000180025095e-35 -1.0000000180025095e-35 -1.0000000180025095e-35 -1.0000000180025095e-35 -1.0000000180025095e-35 1.0000000180025095e-35 1.0000000180025095e-35 1.0000000180025095e-35 -1.0000000180025095e-35 -1.0000000180025095e-35 -1.0000000180025095e-35 1.0000000180025095e-35 1.0000000180025095e-35 1.0000000180025095e-35 1.0000000180025095e-35 -1.0000000180025095e-35 1.0000000180025095e-35 -1.0000000180025095e-35 1.0000000180025095e-35 -1.0000000180025095e-35 -1.0000000180025095e-35
decision_type=2 2 2 2 2 2 2 2 2 2 2 2 2 2 2 2 2 2 2 2 2 2 2 2
left_child=2 4 7 9 5 23 -5 -1 -6 21 -10 -7 -12 14 -4 -15 19 -9 -11 -8 -13 -3 -23 -2
right_child=1 3 13 6 8 11 16 17 10 18 12 20 -14 15 -16 -17 -18 -19 -20 -21 -22 22 -24 -25
leaf_value=0.063548116921698802 0.0491541254281559 -0.048136711474916952 0.027637139476820002 -0.055899422330502685 -0.044886168057940157 0.017598674018291786 -0.0060580006343481929 0.026169382757456141 -0.033716843248368031 -0.045830069037129245 -0.056618827469466081 -0.015423384391077186 0.03548806573078897 -0.039348521258338071 -0.045050621245439862 0.0040199938144329589 0.068498101913303952 -0.03748472332563918 0.034644490012361639 0.053651878422998865 -0.063821593891433132 -0.056211209443210342 0.01256235493276214 0.0049783769054434724
leaf_weight=8196.5395045876503 3584.4360640496016 3756.3155102431774 4245.373231895268 803.12179822474718 19223.490784220397 2197.5405930504203 1497.7050823047757 4197.8122349753976 4364.7282297387719 568.90309083461761 723.91958069056273 2375.50678370893 3489.3548918887973 6811.7877272665501 1229.4471154212952 3472.4844139963388 7348.4332460165024 1136.2988176122308 3768.3367062211037 2208.9042485505342 2799.8034783229232 783.62955044955015 2179.733286857605 2073.4249312654138
leaf_count=36846 15426 34696 22774 5888 160439 15659 9367 22449 36288 4485 5840 15006 18419 54410 8169 22274 35465 8066 20247 10275 25595 5837 14363 13828
internal_value=0 -0.00694058 0.0135202 0.0207239 -0.0224659 0.000756622 0.0478909 0.0434669 -0.0333505 -0.00841167 -0.00749867 -0.02396 0.0196617 -0.0121918 0.0113137 -0.0247051 0.0554312 0.0126091 0.0240883 0.0295251 -0.041607 -0.0293891 -0.00562411 0.0329655
internal_weight=0 63747.3 29289.7 22915.1 40832.2 13030.7 11858.2 13530.7 27801.5 11056.9 8578 7372.85 4213.27 15759.1 5474.82 10284.3 11055 5334.11 4337.24 3706.61 5175.31 6719.68 2963.36 5657.86
internal_count=622111 447123 174988 140623 306500 85514 60995 67361 220986 79628 60547 56260 24259 107627 30943 76684 55107 30515 24732 19642 40601 54896 20200 29254
is_linear=0
shrinkage=0.0671755


Tree=25
num_leaves=25
num_cat=0
split_feature=22 23 23 24 21 21 24 21 21 20 21 20 19 20 20 19 19 20 24 23 22 23 22 24
split_gain=1935.95 7696.82 6949.86 5585.47 3238.17 2508.11 2484.77 2220.18 1864.51 1457.31 1182.06 2535.73 1503.03 1177.75 901.821 790.576 782.749 733.416 684.765 601.434 597.161 595.101 1431.33 1277.2
threshold=-1.0000000180025095e-35 1.0000000180025095e-35 -1.0000000180025095e-35 1.0000000180025095e-35 1.0000000180025095e-35 -1.0000000180025095e-35 -1.0000000180025095e-35 -1.0000000180025095e-35 -1.0000000180025095e-35 -1.0000000180025095e-35 1.0000000180025095e-35 1.0000000180025095e-35 -1.0000000180025095e-35 -1.0000000180025095e-35 -1.0000000180025095e-35 -1.0000000180025095e-35 -1.0000000180025095e-35 -1.0000000180025095e-35 -1.0000000180025095e-35 1.0000000180025095e-35 1.0000000180025095e-35 -1.0000000180025095e-35 1.0000000180025095e-35 -1.0000000180025095e-35
decision_type=2 2 2 2 2 2 2 2 2 2 2 2 2 2 2 2 2 2 2 2 2 2 2 2
left_child=2 10 6 4 -3 -5 -1 13 -8 -6 21 17 -13 -4 16 -11 -7 -12 19 -9 -19 22 23 -2
right_child=1 3 7 5 9 14 8 18 -10 15 11 12 -14 -15 -16 -17 -18 20 -20 -21 -22 -23 -24 -25
leaf_value=0.07919540724401801 0.03395516155121743 -0.03150378077101345 0.056104949221116383 -0.053686043046731455 -0.065582815833996042 0.08054098988283484 0.058086309081417438 0.0092901109062683007 -0.011537165336858625 -0.019792879944367976 -0.065225933930751892 -0.065302917226059354 0.049898273943665722 -0.0082194046251106382 0.080680055372677945 0.058432888707158639 -0.049809868762939878 -0.037874135168405265 -0.048518631995911374 -0.060399883901056793 0.0064980009883815653 -0.039360964738718696 -0.059575487320488354 -0.023926809820502982
leaf_weight=6458.241861090064 2621.9018359780312 7865.4631381332874 2120.0588119551539 758.6172269359231 572.96663491427898 371.49404542148113 3289.3472127616405 2098.2873119711876 3674.7023136690259 676.30079723894596 1998.3141080737114 591.87967738509178 3741.3457068800926 3258.7877000942826 7909.060575351119 4223.9617883935571 471.91113974899054 3015.0639527514577 6717.3334218636155 761.61364110559225 2506.2864271625876 18138.718516327441 2884.6102904304862 5002.2296970561147
leaf_count=31574 16802 56832 11050 5908 4379 2149 15883 14376 21728 4005 17075 4331 21620 21123 41364 22124 3398 24333 53509 6006 15407 145560 23425 38150
internal_value=0 -0.00702195 0.0140907 0.0241512 -0.0038939 0.0634827 0.0491821 -0.0174019 0.0213482 0.0357834 -0.0246095 -0.00676777 0.0341621 0.0171338 0.0736386 0.0476364 0.00760514 -0.0303539 -0.0367983 -0.00926896 -0.0177323 -0.0319914 -0.019271 -0.00402124
internal_weight=0 63350.1 28378.4 22849.8 13338.7 9511.08 13422.3 14956.1 6964.05 5473.23 40500.4 11852.9 4333.23 5378.85 8752.47 4900.26 843.405 7519.66 9577.23 2859.9 5521.35 28647.5 10508.7 7624.13
internal_count=622111 446862 175249 140159 87340 52819 69185 106064 37611 30508 306703 82766 25951 32173 46911 26129 5547 56815 73891 20382 39740 223937 78377 54952
is_linear=0
shrinkage=0.0671755


Tree=26
num_leaves=25
num_cat=0
split_feature=15 16 16 15 16 13 13 12 19 12 11 12 11 15 13 13 12 11 12 19 16 12 11 13
split_gain=1784.03 7010.05 2809.25 4901.32 2183.32 2003.36 1813.67 1236.2 1024.22 930.753 908.222 884.267 607.127 558.776 1212.71 774.386 2187.51 938.885 544.075 542.113 495.913 479.211 1412.34 647.706
threshold=1.0000000180025095e-35 1.0000000180025095e-35 -1.0000000180025095e-35 -1.0000000180025095e-35 -1.0000000180025095e-35 1.0000000180025095e-35 -1.0000000180025095e-35 -1.0000000180025095e-35 1.0000000180025095e-35 -1.0000000180025095e-35 -1.0000000180025095e-35 -1.0000000180025095e-35 -1.0000000180025095e-35 -1.0000000180025095e-35 -1.0000000180025095e-35 1.0000000180025095e-35 1.0000000180025095e-35 -1.0000000180025095e-35 -1.0000000180025095e-35 -1.0000000180025095e-35 1.0000000180025095e-35 -1.0000000180025095e-35 -1.0000000180025095e-35 -1.0000000180025095e-35
decision_type=2 2 2 2 2 2 2 2 2 2 2 2 2 2 2 2 2 2 2 2 2 2 2 2
left_child=2 4 3 19 -2 -6 11 -7 13 10 -8 -3 -9 14 -4 21 18 -18 -17 -1 -16 22 -15 -23
right_child=1 6 8 -5 5 7 9 12 -10 -11 -12 -13 -14 15 20 16 17 -19 -20 -21 -22 23 -24 -25
leaf_value=0.013856906585376107 -0.055618459470211552 0.050836823908398283 0.00021808546486735766 -0.016815228631611129 -0.018833331378073501 -0.059843622682452434 0.076055789283830819 -0.014877240852709942 0.00072271963231027698 0.077522324050341596 -0.04192616173762833 -0.061295043769182975 0.066083289302883638 0.047133742883619427 -0.038271387605691529 -0.065948657219996099 -0.058481805490411619 0.071111323593329875 -0.010832916966025199 0.059058282861581039 -0.076814810991508928 -0.054908763300753477 -0.032133008493462407 -0.020485368696624335
leaf_weight=1427.2467476055026 4133.5501704588532 535.31472608447075 3137.0581954270601 10009.279717244208 7585.9167213737965 486.61075025051832 554.9729880169034 487.22373233735561 12844.397844612598 7641.2092949748039 627.06477924436331 779.31226746737957 2939.4261001423001 1547.4613669812679 5008.1838473081589 1110.0319260284305 287.10184404999018 2077.4380259588361 2972.6624136343598 7435.5171371474862 2154.5939196869731 3489.1212078407407 2944.009175106883 8417.1998416781425
leaf_count=9610 31710 3248 21764 72028 53656 3783 3159 3403 87609 42991 4548 5849 17207 9870 37351 8686 2246 12309 21020 43816 17088 26926 21840 60394
internal_value=0 0.0144674 -0.00642545 0.0153984 -0.0137466 0.00130486 0.0579737 0.0403432 -0.0153811 0.0689411 0.0134665 -0.0156339 0.0545714 -0.0216217 -0.0346116 -0.015765 0.00395905 0.0553749 -0.025819 0.0517794 -0.0498659 -0.0235201 -0.00482251 -0.0305733
internal_weight=0 25770.6 64861.3 18872 15632.7 11499.2 10137.9 3913.26 45989.3 8823.25 1182.04 1314.63 3426.65 33144.9 10299.8 22845 6447.23 2364.54 4082.69 8862.76 7162.78 16397.8 4491.47 11906.3
internal_count=622111 169554 452557 125454 109759 78049 59795 24393 327103 50698 7707 9097 20610 239494 76203 163291 44261 14555 29706 53426 54439 119030 31710 87320
is_linear=0
shrinkage=0.0671755


Tree=27
num_leaves=25
num_cat=0
split_feature=10 9 11 9 8 10 8 11 11 12 7 7 8 8 10 7 10 12 5 11 9 5 1 12
split_gain=1713.83 6444.14 3390.62 2556.01 6282.12 3015.8 2504.17 2479.45 2424.89 1920.24 1670.78 1604.62 3665.04 1327.23 1325 1113.35 1465.94 1073.56 918.529 866.985 816.872 815.675 675.362 674.293
threshold=1.0000000180025095e-35 1.0000000180025095e-35 -1.0000000180025095e-35 -1.0000000180025095e-35 -1.0000000180025095e-35 -1.0000000180025095e-35 -1.0000000180025095e-35 -1.0000000180025095e-35 1.0000000180025095e-35 1.0000000180025095e-35 -1.0000000180025095e-35 1.0000000180025095e-35 1.0000000180025095e-35 -1.0000000180025095e-35 -1.0000000180025095e-35 -1.0000000180025095e-35 -1.0000000180025095e-35 -1.0000000180025095e-35 -1.0000000180025095e-35 -1.0000000180025095e-35 -1.0000000180025095e-35 1.0000000180025095e-35 -1.0000000180025095e-35 -1.0000000180025095e-35
decision_type=2 2 2 2 2 2 2 2 2 2 2 2 2 2 2 2 2 2 2 2 2 2 2 2
left_child=3 8 -3 4 15 7 -4 -6 19 23 -8 22 13 -13 -14 -1 -17 -12 -16 -2 -11 -15 -5 -10
right_child=1 2 6 11 5 -7 10 -9 9 20 17 12 14 21 18 16 -18 -19 -20 -21 -22 -23 -24 -25
leaf_value=0.093333912346919623 -0.061082867604264145 -0.056296271196629631 -0.043164166824558828 -0.0086291827299385618 0.080865189262051829 -0.04728905388293074 -0.022205543025439731 -0.017486744238474187 -0.063506473448048939 -0.0237254171996218 0.011863893615092708 -0.0683534176964153 -0.024478940122392993 -0.024121045462749801 -0.028437846747900591 0.077232070502901776 -0.00054893478862705098 0.099793598845281439 0.074442641055273095 -0.018506015160810459 0.095150945908246964 0.028708208828866526 -0.0294288397545607 0.010479082142403451
leaf_weight=3082.2787787467241 3010.8710148483515 1060.2415443062782 789.2266805395484 10308.136275872588 1975.4798310622573 6405.5191756859422 634.7491667047143 2790.5130721628666 744.10237016528845 308.0004840567708 692.49950590729713 2171.3178313300014 924.54974207282066 4098.3201595023274 435.31799795478582 2325.3048699647188 2063.8848824352026 6587.272983148694 3896.7613874003291 7621.0540658459067 1702.6922824680805 1944.5516623407602 22250.983398377895 2197.0773550421
leaf_count=16455 23426 7948 5999 65633 11612 48838 4751 20177 5848 2198 4434 17355 6523 29695 3165 12944 14175 35231 21896 54553 9576 12490 172163 15026
internal_value=0 0.0143307 0.0571211 -0.00627728 0.0147069 -0.0171829 0.0709372 0.0232797 -0.0124795 0.026348 0.0823156 -0.0147763 0.00472279 -0.0233072 0.0485235 0.0623894 0.0406579 0.0914294 0.064104 -0.0305637 0.0769406 -0.00712069 -0.0228438 -0.00823898
internal_weight=0 25347.8 9763.99 64672.9 18643 11171.5 8703.75 4765.99 15583.8 4951.87 7914.52 46029.9 13470.8 8214.19 5256.63 7471.47 4389.19 7279.77 4332.08 10631.9 2010.69 6042.87 32559.1 2941.18
internal_count=622111 168990 58363 453121 124201 80627 50415 31789 110627 32648 44416 328920 91124 59540 31584 43574 27119 39665 25061 77979 11774 42185 237796 20874
is_linear=0
shrinkage=0.0671755


Tree=28
num_leaves=25
num_cat=0
split_feature=22 23 23 22 21 21 21 20 21 20 21 15 14 13 14 12 17 21 17 14 13 15 15 12
split_gain=1773.16 6587.48 6068.23 3638.6 2848.66 2338.61 1368.86 1192.14 1105.65 1049.21 730.716 643.732 2254 1249.62 695.264 693.452 644.021 565.786 552.325 498.708 1675.52 881.998 591.991 539.952
threshold=1.0000000180025095e-35 -1.0000000180025095e-35 1.0000000180025095e-35 -1.0000000180025095e-35 -1.0000000180025095e-35 1.0000000180025095e-35 -1.0000000180025095e-35 -1.0000000180025095e-35 -1.0000000180025095e-35 1.0000000180025095e-35 1.0000000180025095e-35 1.0000000180025095e-35 1.0000000180025095e-35 -1.0000000180025095e-35 -1.0000000180025095e-35 -1.0000000180025095e-35 1.0000000180025095e-35 1.0000000180025095e-35 -1.0000000180025095e-35 -1.0000000180025095e-35 -1.0000000180025095e-35 -1.0000000180025095e-35 -1.0000000180025095e-35 -1.0000000180025095e-35
decision_type=2 2 2 2 2 2 2 2 2 2 2 2 2 2 2 2 2 2 2 2 2 2 2 2
left_child=1 3 5 6 -4 -2 -1 -6 -5 -7 -9 19 14 -14 -13 -15 -16 -8 -17 20 22 -22 -3 -24
right_child=2 11 4 8 7 9 17 10 -10 -11 -12 12 13 15 16 18 -18 -19 -20 -21 21 -23 23 -25
leaf_value=0.068292830505311375 -0.037240630640061972 0.069259502735347964 -0.062764189725278946 0.023003369645713798 -0.011493776376217287 -0.0068046400903166819 0.036105051240653004 0.042840519689647943 -0.025657861095460265 0.053041813241935208 0.078295243183308466 -0.065246400685976591 -0.063723895814326151 -0.029325718503367005 -0.034720013831307808 -0.016596608771921994 0.016417362495170069 -0.0072925176291149113 0.072706533662221295 -0.034005057258251002 -0.001349055729763859 -0.05785028054197755 0.060576166481650727 -0.029134136179532744
leaf_weight=6103.0222543776035 8934.1429876983166 1081.9243537336588 976.28549461811781 3150.7129202485085 1055.5027447640896 3096.3716001175344 5224.8060076609254 4542.1498653516173 6360.6460031121969 2306.6470282226801 6210.1207492277026 1992.1445700004697 519.59500081837177 444.23139588534832 3500.2990254834294 359.190395437181 1628.2527533173561 1830.5304450541735 2403.6554555669427 20897.035179965198 2070.4797452315688 3133.8195304200053 466.31803219020367 862.99333381652832
leaf_count=30234 73157 6806 7781 20865 6881 21020 28459 23660 50482 11986 30726 17150 4209 3490 27826 2592 11207 10492 13859 167514 15264 26304 3157 6990
internal_value=0 -0.00672922 0.0138625 0.022116 0.0475125 -0.0161422 0.044997 0.0566306 -0.00953828 0.0187448 0.0633182 -0.023343 -0.00941461 0.0329129 -0.0315673 0.0485705 -0.0184843 0.0248452 0.0610959 -0.0286418 -0.0139248 -0.0353722 0.0323657 0.00233577
internal_weight=0 62029.7 27121.2 22669.7 12784.1 14337.2 13158.4 11807.8 9511.36 5403.02 10752.3 39359.9 10847.4 3726.67 7120.7 3207.08 5128.55 7055.34 2762.85 28512.6 7615.53 5204.3 2411.24 1329.31
internal_count=622111 446900 175211 140532 69048 106163 69185 61267 71347 33006 54386 306368 80333 24150 56183 19941 39033 38951 16451 226035 58521 41568 16953 10147
is_linear=0
shrinkage=0.0671755


Tree=29
num_leaves=25
num_cat=0
split_feature=10 9 11 9 8 10 8 11 11 12 7 7 6 8 6 8 7 10 12 11 10 13 6 7
split_gain=1472.15 5528.38 2911.13 2199.15 5332.93 2650.58 2134.42 2108.94 2077.82 1626.33 1412.64 1384.83 3175.2 1653.48 1265.86 1056.04 946.326 1224.54 924.861 796.674 794.956 746.383 742.372 2374.17
threshold=1.0000000180025095e-35 1.0000000180025095e-35 -1.0000000180025095e-35 -1.0000000180025095e-35 -1.0000000180025095e-35 -1.0000000180025095e-35 -1.0000000180025095e-35 1.0000000180025095e-35 -1.0000000180025095e-35 1.0000000180025095e-35 -1.0000000180025095e-35 1.0000000180025095e-35 1.0000000180025095e-35 -1.0000000180025095e-35 -1.0000000180025095e-35 1.0000000180025095e-35 -1.0000000180025095e-35 -1.0000000180025095e-35 -1.0000000180025095e-35 -1.0000000180025095e-35 -1.0000000180025095e-35 -1.0000000180025095e-35 -1.0000000180025095e-35 -1.0000000180025095e-35
decision_type=2 2 2 2 2 2 2 2 2 2 2 2 2 2 2 2 2 2 2 2 2 2 2 2
left_child=3 7 -3 4 16 8 -4 19 -6 -9 -8 22 14 -14 -13 -16 -1 -18 -12 -2 -15 -11 23 -5
right_child=1 2 6 11 5 -7 10 9 -10 21 18 12 13 20 15 -17 17 -19 -20 -21 -22 -23 -24 -25
leaf_value=0.086289695766714442 -0.059030265278909706 -0.054172293711129478 -0.041178642884061555 0.035804909064995567 0.07391345201237115 -0.045211898910030357 -0.020687512119439758 -0.0076893162580104627 -0.016312499027875592 -0.054991031721561182 0.010862233296398009 -0.066895819171936932 -0.068050549200525362 -0.00070154951644852575 -0.027040620362855653 0.030371732362744069 0.070883600638229738 -0.00040958989283413261 0.092806293196301931 -0.01738238650652937 0.073532022000476441 0.084326571387611682 -0.027574871020415594 -0.036377801535560389
leaf_weight=3058.1435260251164 2868.3303449302912 1015.4793647527695 762.27917831763625 3707.4940692707896 1988.5453784614801 6164.9432945251465 620.19749779626727 2890.0601648166776 2737.003544934094 191.82510624080896 687.26748757064342 2043.8999731987715 505.15897862240672 793.08059913665056 3937.9907637797296 2284.3656841814518 2326.0387207567692 2041.134773902595 6502.862856335938 7471.6087514236569 3632.1224809959531 1816.0078516229987 23487.545013912022 4616.5633384548128
leaf_count=16455 23426 7948 5999 24870 11612 48838 4751 20874 20177 1445 4434 17337 4220 5349 29455 14113 12944 14175 35231 54553 20650 10329 175856 37070
internal_value=0 0.0134096 0.0533721 -0.0058906 0.0137333 -0.0161971 0.0661117 -0.011736 0.0216552 0.0245746 0.0765834 -0.0138765 0.00441813 0.0470838 -0.0210295 -0.005963 0.0576315 0.0375625 0.084974 -0.0289359 0.0602278 0.071015 -0.0214658 -0.0042278
internal_weight=0 24825.9 9588.09 63324 18315.8 10890.5 8572.61 15237.8 4725.55 4897.89 7810.33 45008.2 13196.6 4930.36 8266.26 6222.36 7425.32 4367.17 7190.13 10339.9 4425.2 2007.83 31811.6 8324.06
internal_count=622111 168990 58363 453121 124201 80627 50415 110627 31789 32648 44416 328920 91124 30219 60905 43568 43574 27119 39665 77979 25999 11774 237796 61940
is_linear=0
shrinkage=0.0671755


Tree=30
num_leaves=25
num_cat=0
split_feature=22 23 23 22 21 21 21 21 21 19 21 22 21 22 23 21 23 16 17 19 21 23 18 19
split_gain=1516.18 5644.66 5169.63 3059.18 2447.27 2037.3 1183.96 950.17 750.629 697.37 584.702 1455.06 582.383 847.753 970.394 478.148 451.633 404.613 586.527 380.261 362.707 478.001 322.273 299.993
threshold=1.0000000180025095e-35 -1.0000000180025095e-35 1.0000000180025095e-35 -1.0000000180025095e-35 -1.0000000180025095e-35 1.0000000180025095e-35 -1.0000000180025095e-35 -1.0000000180025095e-35 1.0000000180025095e-35 -1.0000000180025095e-35 -1.0000000180025095e-35 -1.0000000180025095e-35 1.0000000180025095e-35 -1.0000000180025095e-35 1.0000000180025095e-35 1.0000000180025095e-35 -1.0000000180025095e-35 1.0000000180025095e-35 -1.0000000180025095e-35 -1.0000000180025095e-35 -1.0000000180025095e-35 -1.0000000180025095e-35 -1.0000000180025095e-35 1.0000000180025095e-35
decision_type=2 2 2 2 2 2 2 2 2 2 2 2 2 2 2 2 2 2 2 2 2 2 2 2
left_child=1 3 5 6 -4 20 -1 -5 -6 -7 11 17 -12 -14 23 -8 -11 -3 -19 22 -2 -22 -16 -15
right_child=2 10 4 7 8 9 15 -9 -10 16 12 -13 13 14 19 -17 -18 18 -20 -21 21 -23 -24 -25
leaf_value=0.063494584284354602 -0.056547235263206617 0.0036730928073764957 -0.060751046062004294 0.021239937847870646 0.033710330317284029 -0.038599829898327075 0.033175286187027947 -0.024035665802362174 0.068015162645232455 -0.0091835359116945459 -0.034683929492696039 -0.032404278884130645 -0.045554733304295728 -0.036905419988447048 0.041367901903232564 -0.0069050419728326649 0.04004694747766302 -0.068333355454592071 0.05716882616473646 0.034551845140055999 -0.055693051779811382 -0.014301668932772906 -0.06179613430782524 0.003096781826392463
leaf_weight=5994.9821063131094 2554.4518013633788 3482.5605240762234 927.99245078489184 3154.541553683579 5226.8259042128921 845.27053669467568 5213.3354830518365 6207.7739059105515 6406.8301695808768 1116.9526042155921 17268.848777808249 5632.4682063125074 2852.6787762716413 2791.7061299867928 213.34464191645384 1809.190026499331 3401.5848341062665 188.62031233310699 1537.2181449830532 2777.9742698557675 1778.3194700032473 4311.8276869282126 379.89138703793287 1213.7252840362489
leaf_count=30234 23002 22172 7781 20865 28311 6244 28459 50482 32956 7279 146815 48583 23804 24086 1372 10492 19483 1442 8559 17306 15801 34354 2950 9279
internal_value=0 -0.00630231 0.0129378 0.0205054 0.0442285 -0.0151212 0.041568 -0.00878033 0.0526028 0.0174008 -0.0219509 -0.00873844 -0.0271598 -0.0144575 -0.00243126 0.0228494 0.0278772 0.0168541 0.0434505 0.0241259 -0.0353006 -0.0263884 -0.0246929 -0.0247837
internal_weight=0 60718.9 26570.1 22379.8 12561.6 14008.4 13017.5 9362.32 11633.7 5363.81 38339 10840.9 27498.2 10229.3 7376.64 7022.53 4518.54 5208.4 1725.84 3371.21 8644.6 6090.15 593.236 4005.43
internal_count=622111 446900 175211 140532 69048 106163 69185 71347 61267 33006 306368 80756 225612 78797 54993 38951 26762 32173 10001 21628 73157 50155 4322 33365
is_linear=0
shrinkage=0.0671755


Tree=31
num_leaves=25
num_cat=0
split_feature=2 1 1 3 3 3 2 3 2 3 2 1 2 3 3 2 1 11 9 9 8 7 9 8
split_gain=1411.78 4749.72 3736.85 3244.39 1562.3 1435.07 1265.88 1169.51 725.008 594.325 1432.25 789.661 1101.3 655.575 468.086 349.475 307.375 305.349 297.584 270.577 331.963 326.32 262.965 558.108
threshold=-1.0000000180025095e-35 1.0000000180025095e-35 -1.0000000180025095e-35 1.0000000180025095e-35 -1.0000000180025095e-35 -1.0000000180025095e-35 1.0000000180025095e-35 1.0000000180025095e-35 1.0000000180025095e-35 1.0000000180025095e-35 1.0000000180025095e-35 -1.0000000180025095e-35 1.0000000180025095e-35 -1.0000000180025095e-35 -1.0000000180025095e-35 1.0000000180025095e-35 1.0000000180025095e-35 1.0000000180025095e-35 1.0000000180025095e-35 1.0000000180025095e-35 -1.0000000180025095e-35 -1.0000000180025095e-35 -1.0000000180025095e-35 -1.0000000180025095e-35
decision_type=2 2 2 2 2 2 2 2 2 2 2 2 2 2 2 2 2 2 2 2 2 2 2 2
left_child=2 9 7 5 22 -3 -7 14 19 11 -11 12 13 -2 -1 -13 -6 -12 -19 -5 -21 -22 23 -4
right_child=1 3 4 8 16 6 -8 -9 -10 10 17 15 -14 -15 -16 -17 -18 18 -20 20 21 -23 -24 -25
leaf_value=0.056142721388871886 0.020994702632506301 -0.049419314169048489 0.084358570547744163 0.0091907429558787807 -0.022083087629939359 -0.021494474878478557 0.028266238261134759 -0.012428135528480027 0.05946903324807476 -0.031564973833511437 0.0062895083191588938 -0.044602787814019058 -0.050766866023332392 -0.018264961959611154 0.029642161424454465 -0.023394332967980658 -0.049868576421430943 0.017021533522448434 0.075476099262498375 -0.051811673336261126 -0.051209066331189372 0.073252968726043768 0.0062817453213662158 0.0040078533460573013
leaf_weight=6626.4852375537157 3596.3560950160027 2623.9979976974428 690.94319652020931 2438.321238771081 6094.2372907176614 4062.1283002309501 5339.1343968436122 1910.6544467806816 6522.2244272977114 5684.6358856856823 3600.5237225964665 9517.452509470284 2565.3508669547737 4115.9224562644958 5508.422542989254 5551.7210814803839 2547.9327752180398 941.02652956917882 674.92539209872484 132.85488094389439 105.56121355295181 952.22644144296646 3680.5707851573825 895.89832104742527
leaf_count=32424 21335 23327 3440 15209 50328 33478 29418 10617 35373 48840 22516 93799 22978 33609 28861 49396 23217 5772 3502 963 772 5031 22365 5541
internal_value=0 -0.00637494 0.0119808 0.0181125 -0.0126991 -0.00549457 0.00676533 0.0364219 0.0460778 -0.0213564 -0.00823996 -0.0269974 -0.01264 4.22765e-05 0.0441135 -0.0367894 -0.0302753 0.0171782 0.0414379 0.0220094 0.0482586 0.0608298 0.0161376 0.0389962
internal_weight=0 58424.4 27955.1 22176.4 13909.6 12025.3 9401.26 14045.6 10151.2 36247.9 10901.1 25346.8 10277.6 7712.28 12134.9 15069.2 8642.17 5216.48 1615.95 3628.96 1190.64 1057.79 5267.41 1586.84
